{"num_layers":5,"sizes":[784,100,40,16,10],"weights":[{"v":1,"dim":[100,784],"data":[-1.023198565345755,0.40868163074575614,0.03279481461776563,0.1935910671184596,0.27894771132721646,-0.6207692066726438,1.1981626572277577,0.7113714296199446,-0.10551799376520948,0.009822457305493805,1.510852964407514,0.27128376081865446,0.5688673552392314,-1.2063878136265338,-0.009092415254677747,1.2998303873541168,-0.15512603683000917,0.48072072862203424,-0.7128239947881916,-0.8132017292046088,0.35873138529961707,-1.2255525724650858,1.5260435259789895,0.18608271048222075,1.297021429517232,-0.4294184200988827,0.009554532071478583,-0.034443499721062136,-0.4150326121256482,-0.1176800658476738,-0.0433137071127381,-0.3026295395302021,0.1487419443919153,-0.5622982665762857,0.9550419493228995,-0.2947152000577501,0.8628656088778907,0.0729795356132789,0.8112999633364151,-0.4354325297343869,-1.7086814302761668,1.0705245096744476,1.0750814725563007,1.1562437847045304,-0.09232727728905843,-1.6899776536765245,-0.5562477599972712,-0.4021169139954008,0.31256057574307333,0.18598452683018382,0.18514073549833374,-0.8687730797361262,2.3159092601097035,-0.30533124100088055,-0.4977354501113592,0.18123677551689651,1.6449081843596243,0.31985022144817954,0.14589556033915344,-0.6312343899866099,1.3903284152890236,0.29221364868529315,0.6574291865442499,-0.16577219326792259,1.5102811884050429,-0.21392225863887407,0.3733645025029013,0.17783159769207946,0.22960540487304912,-0.8836601368658542,0.3660673275686525,0.19796004459829458,-1.3513036482278658,-0.9528606370995587,0.33363742035649085,0.7505851184192109,0.7443106817968822,0.7397468775523098,2.6989586487177086,0.23560130376702865,-0.6545092761005014,0.142562865283484,-0.5248365471927361,2.0454460253070597,-1.168985226511091,0.6132498205093568,-0.3399604239488777,-0.7901502790780129,1.0752020404061593,0.8673924159784588,0.5330342104310674,-1.3049307381190682,-0.18028710210811227,-0.34565151827975116,-1.6301861371095334,-1.054853474127252,-3.0581676245590703,-0.1443762665200435,0.10978681680545382,-1.1518073602137493,-1.9738865024481687,1.0265207252731128,0.23230689024972276,3.1760215163163177,3.2654607975287377,0.7959711993828193,2.364513453440181,1.470640158448643,0.2785049544610618,2.0038124636687282,-1.2955658325833115,0.02731027176398956,1.4709659553361458,-1.5959718906211522,0.03066284474095627,1.2245215535176317,-0.6373706087553022,0.4320175089269776,0.27719314633989167,-0.8657678486607759,-0.9003998492181522,-1.1540091961920023,-1.5589324872015464,-3.109079652758435,-2.66714568990357,-0.5767215176654409,-0.6795189674195324,-2.1476094141446858,-0.9881213835006981,-0.25030723959025125,-0.028387966967085836,1.6008498590631535,2.4389334063787307,1.3222320662405465,-0.7935934640628973,1.1348861276834388,-1.6728685983382006,0.515382825720835,0.4390748118779327,-1.8014769291991808,-0.23941826798656518,0.708409526260676,0.9826039465291361,-0.6272574861189041,-1.2187304771176244,-0.647313922783504,-0.5314570045805749,-0.09682044711820229,0.17699998974051442,-1.3521877731717753,-2.32095349940088,-2.376721333283923,-0.0891284902831102,-1.1316070464039876,-2.5533725004248224,-3.653301539267262,-3.2577288764122088,-2.2749602484825866,3.002470872058215,-0.3947967157096069,0.9050656958772715,-0.8368482774014387,-2.7586525250305076,-1.5369329945208423,-0.8520420203696062,-1.047940399032924,0.26882138029602054,-1.012090282812997,0.9837428867133509,-1.5999079569993435,0.6118909228668956,1.6890106880021796,-0.06787889619017705,1.5292685265304367,-1.6288546967412119,-0.11256159218746871,-2.1003849765011853,-3.541021920131254,-2.408101401191695,-4.518789988559692,-3.4583107206542523,-2.851246225775963,-0.6991249054697919,-1.4413004307235913,1.3709866680200884,3.82824084580042,3.0505687972367364,0.5722331443530319,1.8020715791883046,0.7823123174233212,0.898118160273704,0.6911630173587584,1.8799606180089794,1.197334414729759,-0.8540118765655486,0.7071264810342885,0.05898179559444903,-0.04674384448106957,-0.2801839738963594,-0.2961903322877449,-1.9043911313046198,-1.8207925133277847,-0.7565399105121888,-0.8532768524676407,-3.236613465512048,-5.2510691219100245,-5.057788975342384,-2.352710508130792,1.0272813728103383,3.014803530354379,3.3316699489568644,6.884320393700595,5.589555939652637,4.2991438097989185,5.312729466799428,0.47054050811106757,2.0056524038970682,2.5712780946832936,1.4625717326538852,0.5141671396576385,1.6359039970345541,1.864630515691367,1.054288392201969,0.48459139059744816,-0.10057481846154774,2.546073402454356,-1.5537475886331011,1.4019402591855596,-0.7963615752714996,-2.4780088703969563,0.06547270470383469,-2.158647268043599,-4.629560000410587,-3.571795237385827,-2.375392240796176,0.05887516324850125,5.165051706467371,2.680291342410923,0.14995274655584187,-1.6906607984338453,1.5492164565428128,0.10985881423377088,2.9396466485569945,-0.9729073592177339,0.4639730113623445,3.0011187049488393,-0.08622430798033914,0.8198622565584437,-0.934890914838258,0.038787930473773435,-0.8159534733701969,-1.0512737438855762,0.6889434118173398,-0.2619645139323946,1.2990951819225114,-0.6578786886013414,-0.18884176101374897,0.18434763741506238,-0.7501651040423971,-4.543407504247883,-1.9828600097838274,-0.8025474787525515,1.2067094760956179,1.24011328012393,2.166476437960771,1.300561878000002,-1.9524065996786952,-0.5127789816208795,-0.6923901509824814,-2.5277180748070105,-1.5451634247402235,-2.8111408950040055,-0.8069960968684636,-0.025843620494129048,-0.19533455788731727,-1.0210652031564174,0.07262187115225902,0.1583200214117597,-0.046574469438222105,0.8339557597611432,0.5639087945707946,1.0522653160367774,0.8974285178814168,-0.04995086414732095,0.14123951995085474,-1.0660966658634292,-1.5011471266685288,-0.23613034295272076,-0.08091229519979702,-1.313554519781358,0.08111183680642674,-0.8054260519892084,-0.494796496643568,-0.02351217961530958,0.408381583227691,-2.7760781727325683,-2.1635626476817564,-5.365960714723641,-1.5524422206395407,-4.091184245599976,-2.988439026116989,-3.4457961437487667,-2.64108402965579,-0.980874224040449,0.4709776845158473,-2.0768033177915055,1.2771097479202151,-1.7462464347474633,1.6680286834945701,0.01800592511587185,-0.03211599316792621,-1.8270186236292674,-0.9711812559645321,-2.0755503480125954,-0.3289323413684959,1.9327885479779994,1.86123524634035,-3.0377124016918327,-1.1755137062163492,-3.2431001549942664,-0.4702339205922841,0.23479952223550626,3.499946798912645,-0.2477308098115449,-1.6205320737899405,-2.3334675033806773,-1.0328389603733281,-2.60556664221699,-0.4550468093585731,-0.8502254973421915,-2.561309798914493,-1.477987410910814,-0.9304807587628902,0.32225607132568457,0.2745932684365067,-1.00833434596504,-1.391767945367275,-0.4859432245871201,-0.9335187953043466,0.2827296887391034,-0.7508736604801801,1.5502902832924106,-1.1832471534893299,2.6038832336261217,0.2845596332638175,-4.1674828960529835,-2.499206481453921,0.49219690710048764,-1.1147585693703532,1.867663477949235,4.899552536241045,2.0765208122076593,-0.889513395473711,-0.7326928373720938,0.9027423474132374,-1.4555828675868685,-3.0765810123353012,0.2618224712842929,1.1564116893393117,-0.5733555493654219,-1.6626718647526848,-2.1402973939325833,-1.4761080047518291,-0.6701910352335647,0.33484679996228983,0.209986115610466,-1.3422225213293748,-0.36027688583531636,0.3451087021604817,-2.6039472270591917,-1.9504910365362034,1.5014449531855527,-0.5132337056024164,2.0749420097484443,0.7147089666410351,-0.5334531163093352,0.3116532293108542,1.836586737825669,4.89683536176126,0.2917481061093704,-2.106178838611951,-3.701824337652425,-0.2537357312126674,-0.17364901343118194,-1.4397855939106243,-0.7965772234874376,-1.306826210844351,-1.5725117593131062,-0.7452470855955822,0.5028780574698991,0.050200275061828864,1.7378112006771838,0.38958750651627555,0.6136955201426766,-0.196467765787948,0.2934081367203651,-1.1676161593710168,-0.5120636922126788,-2.6014828228398383,0.6655334509359746,-2.125581323080078,-0.8117701326813606,0.7908630528210205,1.150851739123341,0.4612756656102599,2.4115169649989836,1.1738397208557596,0.7043213714914991,0.16268586789707098,-3.0301661222644185,-0.07329045219501855,-0.9935144298280328,-0.16314118478232328,0.3738101153884985,-0.0328385086283343,-2.053153570204629,-2.425451238319151,1.0878279289227588,0.3812531000171913,-0.2419390166094769,-0.5863730001296859,0.05389026880043274,-0.8877541296089421,-1.3048250955350749,-0.780075978746337,-0.2522876472649611,-1.653973542059571,-0.35090606798432933,-0.14981889763918785,0.5090261436611282,0.09891004863841868,-3.0404305782951098,1.2553529364474352,1.5979537807153605,-0.5533816097133692,-2.714068135276301,-2.027165754029295,1.2876034277443695,2.8060968991007194,0.7932128508993509,2.2111392197817468,-2.378222989284881,-2.5749767264385515,-1.7778927958855795,-2.571089611756767,-1.4443325292944147,-0.349419259036908,-0.759841096202847,1.248557883423587,0.9467827845106562,0.32934386091827506,-0.22889111360368197,1.511698325110769,0.5818177516993392,-1.9093643413390595,-1.6061097220426084,2.855389122903591,0.8592469378759022,-1.702328122847291,0.11535427039330634,2.553528273584723,2.0731884029619203,-1.9570426778975054,-4.81827503693652,-1.8514368867370445,0.6804793726938249,2.3555838995267373,1.5566554913044064,-2.5093777566922557,-3.927087996490539,-4.637415693740379,-3.3628676429948583,-1.1085368873164296,-0.6267481204606662,2.2947741587633605,-1.424869882731453,-2.720482167047628,-0.7851168675760867,0.34766207158767276,-0.16500682141702205,-1.3884499463390734,-0.6533829965016015,-0.0758985661227999,-0.5672797576907832,0.5319813393727274,1.8613498651754206,-1.8688545266567311,0.3547015618686794,-1.7310187116438474,-3.5987390219899713,-4.66398377851622,-1.631185715978583,-2.0648514829773,2.2091213145769673,3.495721081122968,1.8200460102909195,-3.8763520162941787,-3.7113694215971496,-2.5647203975464716,-2.1312441729772313,-1.350692275930392,-0.9705101146332646,-1.1291191434596097,0.04553247268135322,1.262913370199712,-1.2365935357765103,-0.23494357567085591,-1.7709674821606038,-0.7314415173744907,-0.1953117252013441,0.6312638009055636,2.6819583928087747,4.1966140962884175,1.106348002366836,-0.17633361690474506,-1.1674134429645424,-0.8155729530650739,-1.8903549167999252,-1.6051904854440016,1.9652121245375354,1.948609315750005,2.3291188808665244,1.9745266468387688,-2.2062843487571837,-2.198266355441478,-1.7914071636917848,-2.0246041111872657,-3.3524094366778425,-1.706142914031315,0.6110031049520313,0.5358815694994078,-0.5925372527337504,-1.1050868806595675,2.0083133428230413,1.2167108135474711,0.4714575505664747,1.1513519413095856,0.6534379290432192,-0.9064751755074946,-1.0399788596569821,-1.2185580644947733,-0.23824394826464096,1.9921819996108265,1.1880605026143736,1.8114860048929122,2.158042459890667,-0.6436341333862045,2.267948831161949,2.462377477274162,0.517702789408047,-0.643702945829259,-3.8157712484603605,-2.7148059573718166,-1.7625981323519677,-1.703019908828966,-0.1706342318544835,-1.2659217205844793,-1.725237754614742,-0.5726979670750791,-0.17997743057180743,0.6274490329987771,-2.0232403086769004,-0.3131014455777258,-0.549824793275591,-0.2815292912949435,0.19910864685213503,-1.9106306579039989,-1.0987893435182008,-0.012809399044303487,-0.9745450088031143,2.481617731049452,1.2627803120292662,-0.11879665396761868,-0.9914270505277151,-1.1931552895003907,1.5033817581100852,-1.682181218580461,1.1394811166845538,0.08895664603774699,-4.921608666196027,-1.9495867392365271,-0.4367689033617308,0.2848772803864769,-0.9148144990584148,-0.17247027640095192,0.3405904661425196,0.450398683952366,0.7497055379380333,0.31457835273133605,-1.2436068862426342,-0.9407589335560832,-2.2197225545549983,0.09565072436688232,-1.0891629736963475,-0.25565483554259,-0.9743463626186056,-0.8725851216217978,0.8998139901317305,-1.0023146999874037,0.1726628672665637,2.2225243680068605,1.8914818210090478,4.3301605582089,-1.1830575360256106,-2.7001913101210926,-1.2614926665202217,-1.942899157386847,-3.30663793603125,-0.9152299979765868,-0.5822491206788468,0.2976527866432135,-0.5161712324334442,-0.7667186904038155,0.041718043991461576,-1.0250462788491415,-1.5308778662994764,0.512144393368329,2.35249759547514,0.2834925180771965,-1.1858803864325582,-1.3299863532183707,-2.0234800147549312,-2.1907767823009503,-2.620361254720632,1.6684876281553807,2.27369216383608,0.45664791364662727,2.3454724325409533,0.6377365618058503,2.234123629605034,1.5189930673071907,-4.827158883572702,-4.08209407797532,-3.126412887940167,-3.582802292669352,-3.971104631499301,-3.0354790868946453,-1.4736656000035198,2.647479904407117,0.2885408378765016,-0.32056298027253094,1.7727395340990582,1.580455804547923,-1.9773304006070576,1.241942734999942,-1.5891692889445501,-0.23259750241560362,-0.48950798900349995,0.19395862163973973,-0.18717869639105245,-1.3702177835946747,-2.9652143104256266,1.3088561151238185,0.7987650771648545,1.7044721019738147,1.9392167752289233,3.760628646620777,3.641722421490904,-3.3194218206948958,-2.145168833893479,-2.967871268358336,-2.275685122022887,-2.3671767028768755,-1.6271169760683946,-0.8218220165703737,-2.2508429629913347,-0.28307726461305427,-1.2292152663523197,0.6828172291073925,0.5531027135612916,1.4154518780737682,-0.15741275465191287,0.7853098860501349,0.5532149576744142,-1.5520754529899914,1.1370729439148899,-1.64514295793035,2.925017826712606,-1.6862633848608695,-1.136101001306382,-0.9681281062489887,-1.9941828631085736,-1.6914732366075098,-3.623022804885203,4.025976978874898,2.2375176121781104,1.538796378090418,1.4848843870900246,-0.5478224789634429,-0.021304114112438557,0.8024609645289504,-0.26226241182330384,0.8235037442515519,-1.9535663752375942,0.27050016925080017,-1.5670773396444706,-0.32012436491913765,-0.2320575963878422,1.2219397877663756,-0.9229648822946357,-0.6727802237058206,0.3694919055424228,1.7098822975855983,-0.06681085450914945,0.8732207675240801,-1.371842447945589,-0.8192221985369074,-0.8371125597378803,-0.4148268298203973,-1.9600290736231836,0.47891661008817293,1.5520432919113365,2.4652737676183727,0.9940819594635907,1.3226699845219745,2.2265220966468373,3.171456411855616,4.050590377375344,2.323820067085786,0.8767610600255393,1.1077951424103145,-0.3062361950414634,-0.33686589001133954,1.249640089079028,-0.5217377119284955,-0.6207128754496692,-1.6043874370282651,0.4956095613174229,1.3533826638997208,0.38600670745249627,1.1354404427438975,-1.9199500270921095,-1.4167199681614806,0.42501588729421524,-0.5913129818546766,-0.06229376617721746,0.21503180160377156,-2.19079652391188,0.033944132905896936,1.7034509786570782,0.6657987079062111,0.7496100102348464,2.079971798826971,0.9794570978610865,1.7846339822819846,2.486691992702899,1.294113249383745,-1.4623089652399774,0.018155985807309424,-0.6986880703579751,0.9512386823020604,-0.4554925109381041,0.2394036185177525,-0.7250015497459301,-1.3100698260030126,-1.3134794321659284,0.919440825603169,1.2011508657530885,-0.6973728063625146,2.18774737215812,0.7479480004836195,-1.0213542444664025,-1.0775579095795276,-0.7960235288954016,1.5052288852405813,-0.08510798794387563,0.30394641627861796,2.5049991077202955,-0.4136792820392687,0.3078234756851698,1.5009779945677049,0.4887840924258814,1.0230650075997128,0.03328834859249811,-0.2224502669974139,-0.23855341403076916,1.535853048570146,1.1109710443418739,-1.92537612154267,-0.1266182158313956,0.46928814934635743,1.1728081660968155,-0.5842695425301718,-0.6571409206954792,2.796661345443433,-0.8553244088895704,0.9068117363948581,-0.8690330796869847,0.11163173964266077,0.8953779213903789,-0.23278561816375062,0.1614504345873072,0.1152174656315887,1.9993861579941192,0.27914996931966063,-0.022710152469494996,0.08726040520097267,0.1597057929086676,0.5508384825675645,-0.6829618167717326,-0.4750630016487683,0.44598822624675083,-0.8882047611623283,0.3765200561291102,0.7959036394714141,1.5763593405932133,-0.024810497805073984,0.39472259425481154,-0.3240744498296273,-0.002098297616224671,1.5928326666094914,0.34467014609305174,0.365979366932811,0.2832384951583183,-0.34757089790374285,0.4641544867769578,1.2054335982621684,-0.5545129722658158,-1.2256776885465397,0.711385112401102,-0.31097421173265194,-0.0567870727463548,-0.5007589360961752,1.6495449094676986,0.6660152600490196,0.07516706807638844,0.12894243333921976,-1.721168236692199,0.14253881011105568,1.2817966682481559,0.11065015946366293,-0.7752101984523878,0.21606861633582203,0.2562012736386332,-0.46092063891855467,-0.7713357479091136,0.23847869463095078,0.2007503141253933,0.642305404915239,-0.1257088422407715,1.111752329876614,0.45642070099896154,0.04014973745828627,1.1447508609499113,-0.4792979647958849,-0.15446147449466566,0.7136552755974515,1.0148445771862107,0.1169172680594688,-0.8591396801519522,-0.49955523229654314,0.626633433037184,-0.4295069665929657,-0.17691279530668558,1.1657262101650754,-1.708980062848026,1.3873699473322765,-0.695727772801527,0.3010231064417123,-0.44035130412692286,-0.4584052636208578,1.5839758853307624,0.517369338844453,-1.6189626558107642,-1.250230899997498,0.23489225227097854,0.7198708676890041,0.6988967373725642,-0.41743330135489326,-0.4092240224643223,0.7360767048985363,0.833271905626002,-0.17470792046753555,0.5503026498892822,0.49788459950604075,-0.2501587744096922,-1.951594946272639,-0.46329605590087075,2.1635127762697954,1.5063759388103923,0.9120294143330177,-0.10923132687367453,-1.2361519945450585,-1.0828904113564204,-0.7166391013634672,-0.2207068274953509,-1.6777693083409093,-0.9070961940151192,0.4808315853630242,1.4032838880733773,1.0064578993076552,0.6770393952057463,-0.17545686150422055,0.8542559266385594,1.4452557549015204,0.557111227000499,-0.3494516772182145,0.8887946072642936,0.7743425442698786,0.00543423465386038,0.14942048579360073,-1.8601353260483449,0.49390718175411624,-0.6339646063210662,-0.2790214400423322,0.39999750950870605,0.3927114470540046,1.8314488346348823,2.3903725302125642,1.735949032211434,2.0048067194356842,0.009483911609302441,-0.8563364009722867,0.26826534601239144,-3.4501835073222686,-0.33718632258463327,-0.43176069842602227,-0.8367695888271321,0.28053415780385976,0.32640794252051575,-1.1839304455228086,0.4733591361389372,-0.5379851656421724,2.484822894305404,-1.5668225259264648,1.1220852132398977,-0.8051254468435555,1.1849774859270183,-0.14127984702802107,-1.3881914180700081,0.4885436649774617,-1.306977096779521,-2.1065396837235073,-2.178142917145585,0.04801745106570994,0.40322393822553887,-0.10268640119359389,-0.9757887439760067,1.1376060726521144,1.718013823582929,-0.6375592536481677,1.9021102978766935,3.7826442497478143,1.1155457776345856,-0.16211224072873193,2.349372621147541,-1.9977454148920475,-1.471466768403659,1.3075633754982703,-1.451407644054913,-0.6463022781442446,-0.6150688331715167,1.3852548522773973,-1.686224923589974,1.8449648663230327,0.5701772816628862,0.7777076177265284,-1.8688820203426424,0.06679512031629746,-0.4882339583247972,0.6552724270069455,-1.7707832971368984,-1.0005858994194186,-1.1813177033925364,0.380942547441144,-0.8895272814519719,2.2869468185012525,1.8285069878488973,-0.001214196403489453,0.9111242054104443,1.036981431638799,2.38651357377054,-2.5851966593324325,-1.4094039623362635,-0.41884545349674573,-1.5076608841406582,-1.1577939636888548,-0.09403466436286707,0.9523146387900631,-0.4754412276491989,1.4744598715706263,-0.23432461658646286,-1.7864277198770993,0.063309050621732,-0.2954544398290404,0.2095890038110644,0.7622951693185782,-0.7412960736272269,-1.8410216122617025,1.1312695824069987,1.139358076197986,-0.022512057837875927,-3.718727479454049,-1.3151024808692098,-2.4648654962675676,0.9149577234633974,-2.134693156234417,-2.854452588993671,-2.3743852504159753,-1.6280640394628025,1.016902040711728,-0.41806453602930416,-0.1517598364294841,-3.4976340841243894,-1.556285428026222,-2.1677683163074675,-1.338647964747456,-1.7230113936695002,-1.330317898292574,0.26271280394740026,1.5845290264611585,0.8233649822803492,-0.8337145744215333,2.390752004891395,0.7084900047947054,0.3746136359907381,-0.3612763092418053,-1.1369852994074452,-0.26836477569881095,0.13238798099211654,-1.431679052338812,0.3012461962111361,0.8206355677661823,-0.12964186184799073,-1.202112010231286,-0.866237977112414,-1.0862432840393728,-1.6262524874528068,-1.214577391114791,0.25481593614370146,0.6495679384296635,0.019487227287870293,0.47697701954884586,-0.7944229236596115,-0.84745239487699,-0.5963608816690992,1.3373568530066346,0.18597202354166228,0.9604794241130894,0.3485482120796707,0.17310507425262314,-1.469447576071291,0.14028383667940325,1.1824732327116823,-0.77524058447706,0.2783871605086068,-0.1120989023834417,-1.238618924913052,-1.39324379629224,1.2997777885034354,-0.5854100014415731,-0.23905203321193474,0.4063498864062112,2.1166030000290257,2.10871879814179,-1.8976967167448222,1.6230710342409185,1.4704986806024585,1.435027727050657,-0.017295146781313015,-0.24419433909504903,-1.2990521748625885,0.3102114601695148,-1.3102936067041855,2.402592303639514,-0.3064645293339604,-0.03966269019814328,-0.19840504805726566,0.426762408952726,-0.48797201069976665,1.7727273708591746,-0.007495069456510017,-0.9001703001938499,1.32055135855925,0.9461926596993073,-3.0846932777641154,-1.4574630480891988,-1.9737482856024469,0.34972866205414727,2.735657463335272,-0.27273258346561535,2.618601980887101,1.6922527907442084,0.9377252833544997,0.8868008205516701,3.129024508336763,1.5991934718739875,0.8248873668683762,-1.9286927195720176,-0.6292099500446728,-1.2420537988398903,-0.06844859959615496,-0.10993174645269534,0.012604416501259008,-1.3856580723754925,-0.41617804866475727,-1.7953761242265154,-1.367997142034,0.1497380239110676,3.0040669839066756,0.1207813287870726,2.6156182189417714,-0.6165234121270007,0.41207162123721247,0.4253581559422287,-0.004586079359491834,1.2691771173897486,2.1725085668583652,-0.9420284066335147,-2.399849511572486,-0.3057308577975512,-0.04809795474641036,-0.24117625253927497,1.0329229968539815,-0.2081151147214327,0.07881447990296779,0.07401268821083684,0.7759703314243861,1.6823663691529356,-0.6793219942611275,0.5233154947970886,-0.3525412445265755,-0.4496995435190908,-0.1872954464082615,-1.4779782283733207,-2.0688085229811004,-0.21576885384509079,4.5366522832863305,3.5051883907946366,5.928522565892093,2.9846588980107818,-1.3822022455499299,1.2481724676632193,2.103352705813293,-1.0431543474291618,-2.4824599904721736,0.6420004762468541,-0.8403765822963359,-2.110831166278001,-1.847702514532838,-0.7424185742657523,1.7912131996857403,1.4630842374723045,-0.17383623631674233,0.4146999966298562,-0.14313086212661216,-0.22673918933237067,-1.5656475733475912,1.5066915575201452,-0.06298122950097333,-0.2881582420893414,-1.0713536988066117,-3.615505154211256,-1.1248707491186307,-1.5221710503734809,-0.6489268119322839,2.6160397674452702,5.284396825059229,1.2316102336749528,-0.18807110763226162,-0.5843276479378234,1.9900634549347862,-1.729054753751623,-0.6614985797662783,1.3576301919205402,1.2348236738374148,-0.927780985297182,-3.114506343249218,-1.6574265832015787,-1.6004939346645508,-0.42682534758325374,-0.3866641949366775,-0.12750514837305665,-1.142390249967921,-0.14178757418365473,-0.7469890860656916,1.259932671999565,-1.0037342054490128,0.22949677376534655,0.1469270207455067,-2.617468759527492,-0.9667512017225154,-3.588405639356177,-0.3034062034357724,1.0290642119576479,3.0821722999359635,1.3744388530362208,1.5293634213261702,-0.619319189297878,0.5150290630981662,-2.9449497625765986,-2.003773630384345,-2.1332751769273526,0.3867419231834382,-1.8413171968106088,-0.806162676938532,0.9636076033280896,-1.916575385924679,-1.8979779044322165,-0.20071336144349633,2.3413480021498034,-1.3144581919537541,-1.481811416836183,2.041297023998767,-0.5771834861208545,-0.07335601989628698,-1.282921153242913,0.5275713399886575,-0.6806512665264378,1.1250779052221949,0.46690801383251174,0.4970288177463171,0.5675266831198503,1.213039750377106,-0.8151671064967851,-0.27760883449674495,0.4669965635560075,1.939343778696041,-1.5251047523160726,-3.7231991060672702,-0.21541127910231495,0.1590172778446523,0.5541774355334638,0.33721992352734925,-0.8155566207803927,-0.5667109846615467,-1.0552886601702942,0.0895612164054327,1.4797663794008507,1.657558142059037,-0.24471107322098182,-1.0823000203545772,-0.026058943074792906,-0.33909830914250805,-0.42938929703715145,-0.27029702862856403,1.1094175626255611,1.018200401478156,2.2280335101646873,0.03160112894472656,2.0246622031197594,2.481638295817491,3.694053307500316,-1.345767795258161,2.891169063005276,-0.437244780234864,-2.0896902364048318,-1.0899415010004658,3.6752869759074756,1.0608780273504632,-0.04985875895967169,-1.6032791292732012,-0.6667609469762728,-0.16620941387855587,-1.2431410254821091,0.6256855993205581,1.2272289607299955,2.271088194016127,-0.2658918543663117,-0.08330135286788659,-1.7642319095952779,1.3553510170405196,2.386498228188161,-0.12037263679255232,-0.9964020323364758,1.484870612245599,-1.9010607996449889,2.3516590507000297,1.0076041289714155,2.8508728708755333,2.7905856990229534,0.26046388401231174,6.077566318943599,1.4727853303706353,-0.15377601351757036,0.10400498390658415,0.09574725096376643,-2.2299775471067593,-0.12716824030936888,-2.0230079879323384,-0.8998804033871819,0.1613346449473508,2.20927725149531,1.0741585788639423,1.165968548331443,0.42726633405310993,-0.3231871115190181,0.7786189184848277,-0.23222533182698765,-0.5212121113568651,-0.5124210971122476,0.004249061488803537,0.9745584808008542,3.150895097936094,-0.4114767416752082,1.4707179456585457,1.9970817070982734,3.3598470289551394,4.083335013377494,3.368949821982855,9.723464994242649,0.613966538228219,-2.5702910953400906,2.19589174621064,-1.9161981591856012,-1.4041996311191698,-2.1128524392524666,-4.0884555613081615,-2.221140382022383,-0.711598885230443,1.6899496972598163,2.5445312853229445,1.6351949230071665,-0.4893199703150505,0.22735686018923568,-1.5484853209554885,0.8519231934537345,-1.4387992310217501,-2.163241263187448,0.5896832005345891,-0.21339472403344906,1.0255652813686633,1.2936820638653386,1.2766829910417052,2.414338021009321,3.6789096621101343,4.02274647228243,4.340739314946297,4.949598109053886,-1.3161753188244534,-4.455301221492825,-2.267492670036189,-1.381175538820586,-2.5584458615599783,-3.985531826608665,-2.241472351063574,-1.7626821249263667,0.9763446770955599,-0.11711983279298097,-0.19475644108548965,1.3869021128285293,-0.7378717505557523,-0.5672334567357499,0.13553637669876722,0.9484007837858347,0.9621684251713616,1.0828783037672096,-1.325696083962312,-0.4824206462410837,1.5944795661511748,0.5034402336800567,1.1404434864970325,0.44446925915775193,-1.4039050536062754,2.736837988067673,5.402933743169882,5.326536294078354,-5.027689144266724,-5.582441069075754,-0.9349078437148975,-2.9902677309384686,-3.874605825743101,-2.411568138854595,-3.4865541978589203,-1.333370884758215,0.2893221014151041,1.1058223227560364,1.8000201150140591,1.6135644646461147,0.5618439033878266,-0.24385349566001494,1.5123734537054654,-0.2723576411081065,-0.5412435982279219,0.35746497926828913,1.1287443141337918,-0.09985904874365333,-1.365254915746799,0.3634742722725464,-1.1007971010797704,0.28618534101616927,0.7152587218034479,2.0753861240966147,3.133815582106562,2.2797337150138572,-1.2045363311752462,-1.6421680246616046,-0.9431581485845107,-2.9097678466676618,-0.7661633234256474,-0.2471329248293527,-0.8412315232476559,0.03811404544990789,2.507117644986075,2.613635163962917,2.2013437503197584,0.7901502557527469,-0.9219587066656758,0.7332776624387071,-0.2989082266219789,-0.2179900411830886,-0.6700409727874946,0.05861243481717839,1.249107597832881,-0.9180693865297851,-0.9592269963081715,-3.0101403874802384,2.6877102752998923,3.7003536616959165,2.995582619538292,4.126023440289319,3.0363403823288926,0.8224912269878176,-1.2945210139740468,-0.8319172178192039,-3.8927113031670406,-5.386642822958069,-3.0877014210607574,0.9722997119676658,0.9652247328222189,-1.4405493929581041,0.526332635429508,1.5495016191846507,3.589481239625,-0.33272771479109076,0.5264176512125789,-1.3584252852165932,-0.8708076820444346,0.011779021796641937,0.17686235817661203,-0.027648926578944525,-0.660646325240237,-1.072078805304062,0.1801323992881471,0.3081388790091997,0.6370161720576556,3.2719922763494975,2.1971526516601,2.4572177263213617,2.256033667053835,-0.6697219760613536,-0.38384275903695764,-2.8370740419615323,-3.6176858944200236,-3.7230294166171674,-3.1823891937145055,2.842700929381895,1.3742390420238382,-2.1005934518314096,-0.004466436255256702,1.5420341750581728,0.7760169963877296,-0.6569236347070494,-1.3168840108714772,3.04450987992223,0.4671202282418705,0.21409970864379302,2.041006360512251,-0.5469023448408725,-0.17807593479120287,1.4739811696649545,-0.4519813121443274,-1.320039687937551,-2.386810940495311,0.9337584427006375,0.9210562795106642,0.44711979145134756,0.16038094528751282,3.1607194533755694,2.0900301654661875,-0.2216595894518741,-0.1509281044730787,0.34005730247566274,-2.9449686653606735,-0.2690552431321478,-3.100562305359224,-3.109352797382531,-0.719187395468921,-0.2902493162318944,0.4070013190022388,0.9883467501649219,1.04624281143407,0.9965033963899401,-0.7518515804612295,-0.07357491921988553,-0.8203796141691867,-1.5171108739655559,1.2982623133491102,-0.9885689380073323,-0.39582886446834825,-0.33883875139758857,1.2324220369334333,1.3724654442248687,-0.6282775138676825,-1.6674864947314025,0.8007656817654673,-1.0558375869047905,0.975218439883884,-1.9224358131859662,-0.5541963267768126,-0.48250492262907835,-1.5356854534541866,-0.10664144966565264,-0.9252131967057994,0.31495301162163925,-0.03438203092081188,1.955114944100844,-1.3039313443301292,-0.22891200818143684,-0.9232931028380122,0.2870526759707549,0.20111692308069914,-0.43789913070721037,0.7772145123457707,-1.5206801616063004,0.5532905385325059,0.4254553783834042,0.8681133746448181,-0.45475242009706085,0.48577991152486766,-0.7193851871045029,-0.3531845347678582,0.6291492284019317,-1.0297243698999428,-0.7265280854870115,-1.0560016778323147,-0.9551827397919768,-0.8692002307426661,-2.796506413920035,-2.580847853144073,-2.3565409377020865,-0.02836736290198648,-1.158618673436895,-1.3988517608732358,1.0326672783152744,-0.998976944551929,-0.18029846676437325,0.2535865380559563,0.38996215865964257,-0.06994647024739338,1.3131656114019605,-1.7072352128967492,0.7040945564736122,-0.46744058951051487,0.7598326583079189,-0.6085024802934058,-1.162594145945886,0.2936010956369824,1.4737667567615853,-0.2688768318116497,1.050856088601703,-0.11458819460480674,-0.9096907293224862,-0.4037220238753949,-0.39243587727373325,-0.3645668465290253,0.3338888202062191,0.9414924766587849,-0.33603701138933983,-0.07642145373188243,-0.3677086415882825,0.6519428566489253,0.769418413232389,0.6799505267536923,0.21499882635830805,-1.212589318575533,0.15661126427186706,1.6103885317821274,1.0109832123245892,-0.6488993613089948,-0.010481064687742713,0.5464504002296579,-1.1960526744843294,-0.8073470883635135,0.7776539066783952,0.9947365993865629,0.9219852165163612,0.4701631078976742,1.6518422546579588,0.52146082487349,-1.2121419641144928,0.24781310061284556,-0.4383558069918862,2.0666645121840497,1.5208233635098387,-0.460437114314265,1.5795533468748637,0.10081718180105037,1.4221566071147493,-0.30642394499470293,-1.806669431770802,-0.6312910162376023,-0.3444405340717822,0.09248018705969295,0.3079072260718085,-0.37683188568812764,0.6961743592707527,0.14100365932229678,0.5817041487294349,-1.7476929226825444,-0.8402365041408462,0.23267299116712487,0.472058942400444,0.16057433050402461,-0.659227654745098,0.11353762009315728,-0.31632174363884497,0.4386635019532339,0.5473347855664117,-0.061598379695404645,-0.36209545349879196,-0.3498677461093448,1.736724108897687,-0.941098805909178,-2.0622072524790216,0.22152636912221726,-0.811339114003688,1.5925513402557636,0.39549315126975343,0.8564855346995626,-0.02865021408881928,-0.2921161517629777,0.1613427845556615,-1.1670793619437436,1.1780883220310316,-0.2154220908577944,0.488040029693653,0.05676132925843901,-1.591304937598733,-0.03168711145091864,-0.5016022345760645,0.928849069270391,0.048034862132043936,-0.7386493384506643,0.2928186892221319,0.2974156709605104,2.275095830938269,1.4438895204675648,-0.6842105201159112,0.5520091377802703,1.7834133628276738,0.5268792762588225,2.1223588365090285,1.659934261491122,-0.9782826307969769,0.1450509138442109,1.058464824230343,-0.06649066931598899,-0.22397133157303228,0.9193100870714288,0.35963935986648027,-1.0575171387664963,0.5284293555251954,-0.061192394690419025,-0.29750188225656826,-0.6279377534880972,0.40406513524065873,0.3233924787873551,0.3946857358733684,-1.588006693635753,-0.5712187666790819,-0.7989785671997496,-0.3594140442670042,2.9167258011458355,2.824129605740749,3.8857851484610566,3.2267732738281727,3.3774611934344034,1.995371039470412,-0.3617671163822581,1.2467760894684767,-0.15098691427144642,-0.061905898164518455,1.277712862311289,-0.5486981649362221,-0.46626446859642284,-2.058648430974406,-0.8705165755889995,-0.9751661498908881,-1.5246694278663393,-0.6492004922248967,0.0771211930658018,0.3417919966684842,1.2486918380079772,0.29105134087199136,-0.5805228372104068,-1.3417198585132342,-1.8940069234005628,-0.7464237645844007,-1.6976388751387368,-1.489648858746852,0.4278659667157371,1.0695782984743518,2.862523860217165,2.8568967898200013,4.579017525249571,4.153384105298792,3.576818622703298,3.5265034016619383,2.723863538816162,1.2867238213102776,0.18427267791769555,0.4767787193643006,1.131619713967438,2.1914523903783456,-1.9023793269433462,-0.49148950718108236,1.3112471040210063,-0.897890175830309,-1.6094854988755882,-1.1459262495925688,-0.42305153996781053,-0.810663665715361,-0.7831748779804104,1.9468658205840712,-0.9452185203940037,-1.5418563545224007,-2.4948824563106,-1.2612718834040575,-1.5029330753816745,-0.26747573510618694,0.07292183219091913,-0.07824310057475026,0.5601092592500829,7.237508486742126,6.287734252245739,3.5112530949159027,1.1898330135568693,1.9323666356133742,-0.22648900196395128,0.7526752728239066,-0.5619983849757293,-0.2507958852395766,0.7991897316689165,0.6632733853119186,0.8809872762670486,0.6001448355933534,-0.3501058086794556,0.458172865937789,-1.9149773348238517,-0.36629323959409066,-0.7644252398407241,1.175117428693156,-1.1183856458327484,0.19603762654042028,-2.4013080338081148,-3.17241332925922,-2.473662918498124,-3.692601824666273,-0.6596447185049232,-0.5526409263590647,-2.2256126865833634,3.1365528696018887,3.030732541719219,6.207805397470093,5.709180582474793,0.924419036028643,-0.0072433768406271965,0.9964609416630363,0.05687004423884493,-1.557771359309452,-0.6614444239346061,1.3897896633425548,0.7029591086479533,0.0011694482657688167,-1.6768036295866031,-0.0368402256963576,-3.4018365371302526,-1.962176333093279,0.982420937094404,-0.7059531204508203,1.287490680156757,1.3465787853162927,0.38163544915224984,0.9163456389235499,1.738494640889737,0.8561328379217609,-2.874132102243684,-0.18658838011708934,-4.188992271341661,-2.1679838845539035,3.7215160704234695,7.782073445461001,7.933052155636105,1.8279894819642935,1.5547929219363745,1.4552237193336943,2.11457572198569,-0.7412301589580508,0.7615873664281237,-1.9390582473469107,0.22913185750765355,-0.492023203738363,0.01568253548249885,0.3105816496956017,-0.6061189843240382,0.45351229646962815,-1.8411904926563079,-1.8708065193224863,1.595819879670027,-1.662211558888747,1.4493110066878063,-0.7616962980018323,-0.8002970953027129,-2.076927993445106,-5.153855671398555,-2.7069163038780957,-3.1583778342940048,-1.9649534362063368,0.9903503368060558,3.708103433826471,8.958476517222504,5.402010840455556,3.3621966839831248,2.11619463476146,0.8170311935908907,0.9825773892972784,1.2575370482903583,-1.2182191693563886,0.05937695270307472,-0.16121740101817963,-0.6479115747766426,-1.538934378727017,0.022282670364786657,-0.38659515427399715,-3.299363264966677,-0.34651340131692937,-2.240594040151631,2.2833799755971587,1.282057393313489,-2.375297633903233,2.120908884951752,0.31589474769801645,-0.6969721904628341,-3.0285341093876017,-4.55010680862447,-4.162723657709666,-2.242580565527109,0.9855725789125589,4.682307510895615,6.7562343903403885,3.0581849686089817,1.6519613656019874,-0.08583585486364129,0.33599349441404336,1.2792816031929442,1.7802740930663585,1.5814907160889153,-0.729693285705608,0.9346588826627843,0.31779443383885486,-0.6592960820797273,-0.9696540640128257,-1.7461326457321054,-1.5633182421144667,-3.4042780958111987,-3.372741264181495,0.29682420567770124,-1.0688175459096982,1.7139125980606444,2.9035126272705414,-2.2871676723342276,-3.1581454775317677,-2.434009630386516,-4.679883036388806,1.5917153974772345,-0.4365962855416988,2.7954778827419253,4.679474993467044,3.258375793538306,2.025875621965589,0.7073417883396299,1.9660486677562556,1.523702583997466,0.8240903613994044,-1.0868625113025037,0.5840171469155148,-1.363144779811402,-2.5007065843377374,-0.17911563953135046,-2.1345702041339023,-0.7320045323486402,0.41815830644001806,-1.293416690215065,1.1455154789681266,0.23717801027809438,0.10379897389206426,1.5133801799750008,-0.8545111929250032,1.8639088797346723,0.38031267069360736,-6.745473543027379,-0.32724047223873337,2.9322257751758443,-1.048494058992225,-2.0358354646166754,0.20463990215400693,3.6497886026704065,-0.5564226661566118,0.119577480071112,0.8961068333704263,0.6618497970430212,-0.8352103969138367,-1.092977289791044,1.1029757248635057,2.028117211279844,1.156263767742808,1.085432110161452,-2.6563670654103064,-1.7313702991155437,3.6264742076319765,1.9994373649003092,1.9806911012306927,2.105695710114614,1.0481325928459713,3.4510920212694964,1.9075430848816068,-0.6400924325764593,-0.8722158672842034,-6.743158277116472,-0.9278567872955573,1.8123881116124234,0.2365640384456308,-2.83205280170077,2.1656808274402803,1.5901279973372282,-0.362621098310769,-1.130020908940679,-0.9418992603274199,1.2492411512971509,-0.1548372269556759,-0.6819590890093153,-0.8352485264832199,-1.475778960678788,0.6262790723044607,-1.7738996121355655,-1.3411998646981018,2.6196228744739747,1.193559304671063,1.0644584300511633,2.0605194303503436,1.2283324021408057,-1.1206233756313166,3.5865245208737733,-1.4924727437428122,-1.1795993831704321,-3.5459883482401597,-3.2395911784230726,-0.04083138006139989,2.024134789483058,1.396828445806475,-0.010251324138675834,1.6568104946059665,1.7204350861423559,-0.4434894562033649,-1.6272519152608123,0.48396430940877516,-0.10048074828673027,0.1257746492889433,0.3682807457690557,1.4846504246425007,1.3768535447926726,-3.050012368449876,-0.3234784531922639,1.4392416372858543,2.4156993612656152,2.675431039820667,1.4196270559115773,1.5835602640407815,0.7365372844660609,-0.38144824412165446,0.8164752705246421,-2.2311244924187292,0.8043953572056357,-2.1966399390951685,-1.70149832600334,0.6854401452114113,0.6238231537488684,1.422383899842258,-2.0382472122864552,1.0509649384256532,1.0952351729604672,-1.7694005456806219,-1.0328611204031424,0.01180949533632447,-0.7988476945844527,0.3088287826422614,-0.05380771453430683,0.3155181745637481,0.5357759635336955,-1.8593632286094246,-1.1149739964492105,-0.10894626073163853,2.6632019817140864,2.89552271816321,3.2826071061579487,0.26708554722898087,-1.8736826064761647,-1.2860531097380292,0.6872186975847974,2.0249295601395505,-2.1172299317788803,-0.9880079415584018,1.4282896529381515,1.3308715860427167,-0.07763629486940017,-1.1982887735284187,1.0985319410342016,-0.1589254408923812,1.1826139916418668,1.3294692752956094,-0.9092299474244906,-1.78922277653469,-0.18149173577608688,-0.0516867550373586,-1.8942390281669428,-1.0833949916631052,-0.8217383256642268,-1.1824032534553697,0.19517528063549555,0.25896782453151,0.621022832091814,0.47894152328113054,0.4088538751813981,1.3146773472381925,-0.2967472374026087,-1.1383965949587493,-0.7497002098313441,0.9981847996641598,-0.8567055170001644,-0.6679209237159949,2.3171340110138354,0.4105427164860054,0.8028012463405434,-0.16838610049662506,-0.15814916769760295,-1.8550384754728249,-1.1642717018827566,-0.40553595680653476,1.1776677583049684,0.255598911734541,-0.9024823601964472,0.3836043630672693,-1.7840559997249734,0.19622053155234698,1.7021646974176359,-1.6342542244895677,-1.127931152669448,0.42031778505078105,0.2758293481753378,-0.9563563733839542,-0.6812342628775875,1.796689371626521,3.5251085325628355,2.8998805999659485,0.6831407432575128,-0.4591377880365758,-2.3017775262792943,-3.3519737329111683,-0.2652320587348149,-1.6274474883607974,-0.4377303873643641,-0.5674097910607905,-1.9876985078727567,-0.9015946824778234,-0.2652638009724248,0.16346433792731332,2.2393259629233015,1.7426262811632325,-0.03635261032088938,-0.2883057643453976,-0.506192840493661,-0.2847370990413367,-0.011423753573156215,-0.21930054705011562,0.7254654299830559,1.0492725609635705,0.4074795931671011,1.2631159780221692,0.46880338923686776,2.2761368933867825,1.7491351472398997,0.7031151360663987,0.6680677366259273,2.1943987036096844,0.04621403768216793,-0.8273741943585857,2.4607744142962895,0.10918636365743686,-1.2018356070712966,2.961640113955288,-0.9087442188375345,-0.9520479852815298,-2.289137754985619,-0.2901086717707541,1.0273105305085497,1.770931897523206,-1.172274861731306,-0.25510851490077896,-0.32716045292435025,0.15944575292337493,0.04525650290594439,-2.2005707404645842,1.0957604663271534,-0.10934084835029641,-1.5231574357209292,-0.924024206404691,0.6390594091856182,0.6558882679124078,-1.0840236309871965,-0.29502351328165743,2.2566920260469567,2.944847881431873,-1.0646288871737901,0.03286868289960381,0.5095963497493151,-2.457427430990602,-0.08306813263607657,0.2928123215262713,-2.957031972760125,-1.656024675128267,-0.759035418735349,1.1797769006025698,0.4645721487971097,0.0968649327222764,0.03588611003182725,-0.45190262485763555,1.834047040352123,0.8476172737480242,-0.7990193094421394,0.3917907625412742,1.4106823235491757,-0.6924002893361829,-0.08828595321796875,0.005310554291489462,0.506740440132694,1.7352187204825107,1.02025708217979,0.08925078073569197,2.802213881108356,3.463399886493478,1.0751866214236885,-0.9574000006024347,2.8881165684224714,-1.8204608795549164,2.4681029791408147,1.1892230517596054,0.5389972026974016,-2.4392019180808924,0.06691241518305838,0.5397350710273014,-1.2704303133245025,0.9345062033080164,1.6218273763668507,-0.624432122394007,0.489994296639915,0.2982095180852311,1.7064042918843243,-0.6307354381161436,-1.9787334586778336,-1.148985753378396,0.990953214899074,0.9042660412549617,1.416381899366363,-0.05746533264141557,1.2901969214524471,0.1917952425688474,4.0411489757365935,6.322580397994879,2.8809541432486117,-0.5949062084400331,-0.14790533067628206,-0.19650722648534386,2.199124907008225,0.5449218756849813,-1.9208089562306017,-0.4140508891917657,1.3244422952062522,3.527108062852655,0.4827106331396647,-0.3618642616243383,1.0854267381060492,0.1705941551634946,1.7725787511281832,0.85145312317076,0.51946517801339,0.7880128192916238,1.0278165056161597,-0.5707579262071326,2.4205297171702167,1.6347425520114203,1.49204185553202,-0.3449714583437696,0.4567417874993753,2.004099402823911,4.684958771079618,2.7456124331515874,0.9356670692120024,-0.6947911667557585,0.9698066396143864,1.2632066481918105,1.2722707063069407,-1.3017971712991727,-1.961197027451182,-1.8716458108755223,0.585236889374155,-0.2598994776030174,1.120347973480912,0.10943081420058177,-0.18849430208046283,-0.16322511122524228,1.3493176525935515,-0.8922839262433973,-0.2831400029663556,-0.2894311583524551,-0.5831334110519247,1.3750505402286552,1.7179650060969809,-0.47149249269408827,0.6999524768914497,0.20161371107604112,3.5853060772615986,1.7598281810274112,0.9727223658900707,0.16292279912393598,-1.1217454542787293,0.8095664871727617,4.456499159166415,1.2169917898557625,-1.4313609928067434,-1.4530088479577778,-2.09506548030825,0.9438639142112899,1.69195458550598,-0.1374042317543342,-1.7246588273547612,-0.7691667306611559,1.059215069091994,1.2888242525699112,-0.6795479074913254,-1.3839697377835147,-0.445359229162535,-0.44795232628425113,1.1066279914639772,-0.7461865902333868,1.364032875675881,-0.3018091359216028,-0.8961231157672205,0.2196470787490178,2.7391344462772986,2.741079032178961,1.2834329618377973,0.6031557500292613,0.8549223533705699,1.2011195013737277,3.5781301104328223,3.3371583214524434,0.8378582522475506,0.6891611156873502,1.2004111294886248,4.200387040530629,0.5547630090755293,0.4875721582268581,-0.06110777081045955,-0.2863529543411442,0.5294819187638679,-0.15104528164516723,-0.8596515014900009,1.2102256238941205,0.017455649955902926,0.5792281001308975,0.40319519206370197,-1.354616965564107,-1.6223701528692787,-0.7622485954950052,0.7782143974385999,-2.6928014609419377,1.317397790469781,-1.6774826873164483,0.4830654644922141,1.8477127019048545,-2.1034539652139403,-1.712354870698849,1.5561863304139365,3.5820650846082938,0.35698390341034014,2.4061019156998116,-0.019251639901786147,0.2326213174844503,-0.82126109350329,1.2732911277724004,-0.3857740587112571,-2.287479808961357,1.698107305208641,-0.6814663728984922,0.48425896195827495,-0.6590272977671788,0.3503615941779662,-0.8309599087752448,-0.7878893763003835,-0.3957344210839895,-0.4013283574449989,1.0031601772239438,0.5158919381133988,1.0284637777626746,-1.024266001039213,-0.441056941572579,1.1783144601482387,0.8537591533753617,-0.5441123220139364,-1.7105035057327636,-0.09599000860759309,-1.1081318060209486,1.8505765289462892,-0.32518271945157595,-0.8539273382112615,-1.7981077885206345,-1.2382913585995168,0.6657385024505647,0.6429525192816943,0.8628094231793404,1.945727876317495,-0.8938003568221997,1.0001326610110743,0.46196063055459835,-0.1919252260065236,-0.6016651652636956,-2.1184653379432783,0.9153838192480235,2.3395619906306386,-0.2939670872978945,0.5437449753297776,-0.2464004120328371,0.8544405956020121,0.4937825396508812,0.060208331835506564,0.5426287562072903,-0.9043288093153257,-0.5403061830595556,-0.2112757898678956,0.09990904926671688,-0.3067970047878238,-0.05734618537656036,-0.7838258955699376,0.4714091953000575,-0.5902516272662051,-0.43234289650917457,-0.1616012716538277,0.09250700472592412,-1.684033302504996,0.8079301882712603,0.516318187506615,-0.27281045405841414,-0.25376553626721843,0.23145264762954257,0.3044792775375795,0.34301553010611624,-0.5940489498367078,2.011270683020158,-0.8149231808552485,-0.07296204940366341,-1.0329663467977364,-1.6105061801326952,0.2320118083393586,0.3133123115237673,0.9765583514746449,0.5203417432468629,-0.009775451312258914,1.0946938918402298,-1.1054042633817789,0.01707445922414033,-1.1729738572251853,-0.6263903660721383,1.894188307364767,-0.9800582428265304,-0.9911098333344146,1.0994929598643437,1.8235991070800537,-1.1875444156746615,0.5780542715137803,-0.338488250970295,0.2044532291640114,1.7156826240345455,0.6235803987914196,1.793324089969613,-0.6455772620534282,0.12481424235129975,-0.7967325373037452,-0.5461310914706339,-0.3343282764411381,-2.1859241109136742,-0.18637448692221156,1.1019075467601707,-0.216097945934486,-1.204858342565881,-0.3248261184878048,0.8590445761854351,0.10193965296290683,1.0869313846270587,1.0846784870008002,0.06501448481261281,-0.8295871736229901,0.12295051257330149,0.4409246099612448,1.8507606295115049,-0.44791381839518174,-0.16845125087618124,1.26868948261432,0.3112138093733504,-0.9484067575593503,-1.788781612085358,-0.3103151527767272,-1.2542601453447941,-1.7305102144944045,-0.4440406917042809,-1.0764232349410228,0.8797997040216344,1.412238967873215,0.8815956612755159,0.36794717159649293,1.179830825851935,2.3601749225817845,0.16344198782620653,1.1195136245734765,0.014556325869544934,1.7572763047302709,1.0235402939032723,1.0915241395999666,1.0406537771777067,0.5784073975419662,0.33377148378978566,-0.13351960243320543,-0.3170045620051244,-0.12451449640513823,-0.18776771897334263,1.4267981915387704,0.3490078043853836,-0.18323916242321006,-0.7871744311689891,0.9492157156962303,-0.46583943092995744,0.6019856521983767,-0.8388137999422627,0.8243466939994681,1.235008689371843,0.44568940173047816,1.191875134335042,-1.6475634798411485,0.9566058847428703,2.0888608367650154,2.0019426557973645,-0.022981954534573454,3.1889797177878423,1.8318696089873294,2.233319243481233,0.7810341461249088,0.9012521366558685,0.9339568837799547,2.564642266583748,-0.47826149534924167,-0.8926367175945149,-2.151595692322285,-1.439473336057565,-0.18729210030932952,0.5408595691618147,-0.2270821734759825,-0.06742173401861104,-1.960748566071357,-0.28018481005268087,0.7546609735823909,0.24330516875842184,-1.7054146866636821,0.7338210829513022,0.5551881718880487,-0.06594184625135788,3.0335409532545685,2.4345296950292785,0.3443587432154758,-0.18540421006283384,0.6133440827254206,0.7843413221394684,-0.6724086029431371,1.141975832003884,1.3292073603542338,-0.061598149564737185,-0.38175176873899314,-1.180147620106119,-1.112744846834906,-2.170558859798716,-0.10653469565162195,-0.33217784046246696,-0.5663298216858966,-1.9484489689491675,0.19905620005528224,0.9222046267503542,-0.4792625013161827,-0.5187123202534595,-1.3350090814067137,-1.3273575334880794,-1.9668910828619002,-0.7200473241332684,-1.3290455425367742,-0.8224462774261573,1.6194520773935703,0.43567164465257835,-0.6640417207855694,0.3929846160690926,0.8397576954503773,2.213672021621628,5.231142537417286,3.7731205364580944,3.1548354920780817,1.5816828412898714,-0.08546486837747057,0.19579162117225227,-1.6307043283894105,-1.208829772541273,0.3738912239115221,0.7927053657045878,-0.2777661358617316,-1.1396953943955166,0.9053417919872039,-0.35041247351550553,-0.30185652488394915,0.503773889654169,-0.12777852668786763,-0.8164429605086618,0.8457805965909329,-1.1525334031204204,-1.3187708647967462,-0.8075470889344059,2.9538783608893286,1.6742873888246754,2.054315376201815,0.7534173700117911,3.617622887590538,6.048976871599416,4.523590603895262,3.788781228366584,1.6564280765524868,-0.364295173687873,-1.7391936408741995,-0.3679110697443584,-1.9410101584824309,0.26182345624471787,-1.0099712068367286,0.5657240526883636,0.3938537715592355,0.7971793031636456,1.0266429378682875,0.7435229558837726,0.4022605661756689,0.7658757754893262,0.22406607172123288,-0.5127826840100692,-1.679460261130853,1.2399882444207413,-0.04814167489039759,0.21960448813404584,3.173264983781467,3.731811077222369,3.5132676514565606,5.228987241647317,3.2216498915925853,2.6220442043420933,-2.0166395089446145,-1.4240625016343142,-3.212176182863437,-1.4974413190372298,-1.8270667927305086,-1.351616904011197,-1.6001663971977098,-1.0458485232232282,-0.9051840157920339,-0.7023082607968388,1.0108710136570358,0.035312493757434234,-0.61883806526803,-0.1928327661696822,0.018899089841969693,-0.9241701484457788,0.8466506898689627,0.5366977305805474,-1.8543662703861177,-0.0378878897504563,-1.0086928103335746,1.4966420559403673,4.135403538264073,3.0040750839791013,4.164222308336424,5.544564172666487,-6.629939905668555,-7.787218635087709,-5.356479499289468,-2.7950760406084934,-2.8991333219562407,-4.562550146592405,-1.6878565288256846,-0.7693387461183622,-2.7594528789167403,-2.9878929716264526,-1.2372528277889545,0.0037531395061947324,-0.3943706678659931,-1.3447240022785143,-0.2041584169606851,-1.176530037178518,0.13504691662313348,1.440338143702653,-0.27437484557204994,1.8767429465078498,2.356908533248264,0.3048293153919373,-2.6056909735397165,4.8581371549644325,3.8513918294527376,0.1810058751472047,0.14538240192079652,-2.700042489570671,-5.110047653526068,-4.282790352579219,-1.0639112014301648,0.1358757281245317,0.3653826844026891,0.8320646512627272,-2.9735232828951337,-2.396323281554743,-0.42276572144710556,0.48535856671493594,1.753745157852353,0.8289697721344415,-0.03570506095676459,1.16320765681889,1.287385315901617,-0.412872023290701,-1.5584662074454803,0.30048255365506354,3.6678817980049723,1.1516049551638352,4.8447375289295165,1.3449556884070348,1.1990353378330112,0.8251724956491014,-1.4382412579123982,-3.2356202143189146,1.6288749598807448,0.25274672266838416,-4.796557780936022,-2.0885949856734753,-0.8946738828794292,1.2562937501292883,2.978975253763561,1.0863456679834702,-2.478721533616484,-1.9021677148500091,-0.33568004524021994,-1.725243653529987,0.5606683002893151,-0.3768665461865941,-0.22647206121401478,0.28114240264799595,-0.7338579953672164,0.11206213435303698,-0.2701669392169527,3.135551220426037,2.4357461022204308,1.5883554963795214,1.9272297114819237,-2.3914557913115706,-0.5989589147942891,-2.1771165371339043,-0.5669258301518612,-2.1322892331812975,2.877377497369757,3.0130092349379485,-0.18549261688140595,1.1902815700832805,0.682559626912131,3.9579260872753386,2.8937463071739966,4.0273332160100255,-0.19893807561527282,-1.284304059041604,-1.264291492965096,-1.6321739892926674,0.03371512048255663,0.6622602935828865,0.9904084145252054,-2.506718071401615,0.032580226317917654,-0.5314276765099312,-0.7918008681634483,2.7165397026206426,-0.09613740091514458,0.17102367392986187,-3.138820397186335,-1.4043183240424773,2.845149633735224,-0.1655317576371124,0.8972484991873937,-1.6711800082476187,0.3125136502838643,3.396974883882408,1.0034056020212767,2.314078347248624,1.7455799554801406,1.4966967590500033,3.1657037488490296,0.9220269191849656,0.22259602448993066,-1.0349307086254445,-0.5976553257394158,-0.9362527352705662,-0.8538554747499739,-0.29139675606233006,0.007649360347355287,0.603047132163561,1.8339988814557244,0.49566299795795926,-0.16657664594478722,-0.7004172421661108,-0.9529602444954405,-1.5518040408582694,-1.3326702528718035,-0.5082677098076754,2.326588118858436,2.0761361180915587,0.2094041329827013,-0.3785885924289534,-1.0147303853882856,2.053965682207165,0.15467861077004338,2.666566809047504,-3.6261105705645487,-1.5317097628060354,1.0336967168057387,-0.1756229428854695,-2.0644773989955563,-0.6657281665759862,1.3837016876043815,0.9282277086145867,0.2349942177978588,0.42017779239732606,1.4406964289277975,0.2413429802015358,-1.681483763219933,1.274323759275193,-0.9341026839878821,0.8717053661537244,-3.6926984561916862,0.27235177240875585,-1.033966560732843,2.1416437510706308,1.5990735952436286,-0.04447065642207979,1.4160601905561694,-4.236585637243866,-2.7509435122800823,-2.403278327317935,-1.051812851566089,-2.3297294549818246,-3.4869416228364956,-1.1296931353657482,-5.1404198789999835,-0.9172930087987805,0.11990043919931634,0.6042742303508403,0.758383458848921,-1.9866663320738227,2.0488400903343837,0.04235114019626848,-0.53087049171734,0.9982394094967708,-0.6432678993714843,-0.34818475594390036,-0.9429306729581294,0.01105978931719394,-1.855063071759645,-0.4231706749888393,0.4735007782864738,1.1356789245332939,0.5114290139793147,-1.0754434547126652,-2.2408913666047647,-1.7531714433990764,-3.0363901387564742,1.0097525228172726,0.8502410078688113,-0.39178521461241633,-1.9657794144122533,-3.3430892183950545,-2.206820761762073,-0.6247030786268101,0.6008274707357022,-1.0396304110583572,0.006450345122804448,-0.5950747794490032,-0.46446041981092123,1.0658859808227543,-0.8243599854331511,0.5982352366995377,-0.4913208680389819,-0.3365322688322275,1.4952687462790117,-0.5048992095437653,-0.9228112317434448,-0.028344279607705015,-1.0162559079338405,-0.43467349319390536,-0.6269246549193844,-0.8008807528392616,0.5827875876987647,-1.6082382131697728,-1.4806001336444707,-1.237922176645866,-3.727404395860031,-2.157693679396447,-5.1739488525427415,-2.939434066324415,-0.09722908563766954,0.8981793476015877,-0.3917852560468366,1.6508120310213692,-0.7035421732582422,0.729199734926865,2.4707381636609163,0.5096861003693581,-0.24200920298989137,-1.5373361139682713,0.01287396610511719,0.9585452192253241,0.5422016410366872,-1.3738635853661807,-0.6169363391380377,-0.4397627748293296,-2.136078474265249,1.7804485671381178,-2.9553554654601593,0.03467085203952021,0.34232506508360805,-0.28329481227812603,-2.5633103408455247,-2.367891083595998,0.8718275130490377,1.2064450983149535,-1.4954968927519265,-4.813668759434403,-3.467355890171892,-1.2895687144006531,-0.6246242677072921,0.0001657054297777004,0.7945533335091466,1.283049156502227,-0.03657982669763716,-0.5883131504914433,-0.5404825213330549,0.7172100291523194,0.5563095381912161,-0.5092988006648037,0.0037097659102337368,0.4796735693035696,0.6038237691485602,-1.1739168159120528,-3.832966300214933,-1.8122682144621742,-2.3375958189095485,-0.9910950374246869,1.152250670966953,-3.302792222661554,-3.5338956032897686,-0.14529566981937264,-0.435981395859147,-1.1604939498295987,0.3321578869624096,-0.5667006537084447,1.1459025225697321,1.6112809009350566,3.344291488369814,3.420326754282535,2.1863152920929485,0.6916084099192926,0.3464031563058368,-0.7784491830490133,0.6442880199066849,-0.8753907716270388,0.19843327915855455,-0.3420829022399053,-0.5090107373496935,-0.018731391256120677,1.5560117223746701,-0.6785843219673686,-2.09847634372489,0.34866337927067864,1.1003456497855264,1.3929974789376809,-1.5659716983500727,-2.5234486633181232,-0.6320363475438622,-2.023516520762802,-1.9215617197889834,1.641893346813158,1.771624787744201,3.4655428068335747,1.9288450971947768,2.167917934824868,4.5137447247567115,5.555219649214831,2.976109468196928,2.288976547681619,-1.24984019639542,0.7295507324086987,1.2611365199937552,0.09150767161485152,0.011243816047246195,1.2742627209934132,3.0616953225197863,1.196547155880253,0.8400133105780824,1.0165589829948762,-0.11520466827494105,0.9035808933235541,1.4187833039302857,1.03349680814056,-1.1958575926621393,-0.3743158155593719,2.3615862551282527,-0.1426059221729154,1.3704681322395535,4.712795881760127,3.3016483107806143,4.492404546279682,-0.5468212652090295,0.8444092352302186,-0.5488117989130508,4.31725122887554,1.5839587886929005,1.3351020055707123,0.549889315008119,-0.42760665355018845,-0.35543047210696294,-1.6958132964369128,1.2409565267298799,0.8355710166443207,0.3811926059713738,1.5642816246625648,0.13913818893906843,1.3715168021083128,1.968170039756753,2.9235744209069456,2.8674665722875647,1.4725302838201773,-1.5826358863464964,2.064539915624663,1.0699493855608326,0.031534877774624714,2.046704331997098,2.9263972262248688,-0.14654651438744198,3.3736271119337022,0.6842378500182958,0.42424393234304003,-1.5372172769822696,0.6582902981895797,0.19822459751546356,2.777936356535673,1.1374596136455835,-0.9515214775991929,-1.488536731896999,-0.4705756250711429,-0.11708251718871504,-0.02497761695922646,-0.6667162068209467,1.9939839883951307,-0.4947856065412401,1.770831019512112,-0.04576943870366951,0.8704768346740176,1.298169499697796,0.7634550764929261,0.7771013489163363,1.6482589641803695,-0.7238472113864226,-1.394369825939036,1.2064832613860206,-1.4950980112258296,0.8438042412620346,0.04002842773756311,-1.5802034824296125,0.2813159258640851,-0.5394779981388856,-0.6826144665304076,1.0061893571289378,-1.7876700731627397,-0.05174376260683261,-1.119801828963659,0.6756963307190865,1.417718732234454,-1.9597585163386149,-0.6289487974819593,1.7270916764476854,0.7173755699639198,2.7296517310247674,-1.0246583440116062,1.015186578472488,1.3621062923731202,-1.8456003362311415,-1.1068234074537036,-0.5025214223898666,2.340786234097327,-1.8558373418248548,-1.6562642951737427,-0.7357985584588107,-2.189528536285327,0.12480507561731091,2.5775490195526163,0.7817044988999762,1.950848752125584,0.7098088175716017,1.1940891312141835,2.006837340396577,-0.17469908802303466,0.26675188226954627,0.0669918744342839,-0.7497924056509662,0.6021660688189446,0.004273795255567749,1.0275957654539838,2.1742695135884302,-0.42499649403633544,0.4831015406987407,1.2180642053601884,-0.12559616867398424,0.9165700424543759,-1.011223378922052,-2.082826838948736,-0.2584164891092846,0.3634190565379562,-2.900168795961711,-1.6943627454725554,0.1299727143164821,1.5588091852958141,-0.14874342927326883,0.05904773570674783,4.038730185451874,1.351925376952156,1.4349333173090417,0.045508935269830644,1.2260669742641837,-0.2422259112293575,-0.9115619324091767,-0.20456059608353114,0.7573728283708786,-0.8848529869806034,-0.9258880102602898,-0.6342243277382236,-1.8741802783702006,0.8487969253824875,0.34637035230740315,2.104814820498792,0.04375042737347218,-0.5125349178537731,0.49262889158932305,1.7721399217020668,-0.498117456164844,0.3099651040763889,0.36649696545129445,-0.2928970434355835,1.7372683836541258,2.585902043551177,3.8996548182145276,2.4210396045678895,5.40251011665834,2.5254039088655964,1.9957551301611562,0.6025854721749248,-0.6416094747215584,0.6694751443509716,-0.41468485921643544,-0.12675634588489731,0.19717991807092594,-0.13621245404270374,-1.461600365546537,-1.1539454928619597,0.1060916590925722,-0.8515541388381709,1.4820595788455837,0.1813876596914125,0.8620438505338076,1.0632434835063709,0.12784717933674164,1.6278886629764662,1.1519744697147625,-1.429176625181568,0.4754475385871143,0.4863195444460745,0.8211744400609203,0.5170364260072643,0.7212519075658474,-1.2637662453157066,1.6173903858686458,0.6610646656799193,2.055431376868801,-2.6643300260070526,-0.11299676485926546,-0.7455830995557994,0.6110139421761899,-0.9235215496385447,1.1515171059573783,0.7483114421586402,-1.413229940682586,0.4376278832954328,0.44155806976360173,1.3691044209561372,1.2261691181751722,-0.03292930882704988,0.5526277562059629,-1.4252221916746264,0.4591560303690631,-0.8615929919494351,-1.0552041262579035,0.6763830196408863,0.7033536391626707,-0.9456912237442341,-1.3092411608391168,0.03878540135668008,1.0228159055119788,0.5347575899688561,-1.9262951639356498,-0.1696988258441307,-0.3748537653443487,0.9299413889037691,1.2309632189558084,0.09002124092413867,-0.30292081285432687,0.5986036442332985,-1.2306996328514956,-0.23887343188422422,-0.07780757067097349,-0.04362827425282491,-1.1103627581128228,-0.13341786940342362,-0.039519758349179264,0.9086449201351003,-0.5804061578019538,-1.348408309902175,-0.10423690483646507,-0.4981361407698076,-0.6736740781536323,-1.6013166563043078,-0.3829759494854997,-1.5062455915749333,-0.4040978028236158,0.8124909664243635,-0.19843990034837444,-1.6912194697356153,-1.8851321851176146,-1.107946323183463,0.07984878389086632,0.519176734279581,-2.432345365333201,0.3319959988261818,-1.430548247526469,-0.6872211771270669,0.14174216277265195,0.17526393522038988,0.4163314833866491,0.5700652791658828,0.46456908583102,0.06828640985411856,-1.199651749159452,-0.9415512912622866,-0.6305127123687865,-0.6721488452447747,-0.13162542959238752,-0.45657621086155714,-1.3732946257786087,0.5987810239920475,0.7525289052285682,0.6454087116422985,-1.263582894472383,-0.9795973878877424,1.427026948543163,1.5905233891051316,-1.443386819337215,0.940220725726847,-1.9543583358777687,0.5118110640297558,0.8443958405301472,-1.9896929256612264,-0.28738615351728114,1.110330938609132,-0.19564980603322263,-0.8720975235764918,0.9723706933783602,0.4817827226909002,-0.8944890498724528,-0.7655165211386726,-1.032149961264117,-0.7988264707348193,-1.6521400650567557,-1.4548905843718265,0.2771514991633454,0.2457490551080419,-1.25865155811641,0.5069330219741142,1.3874206455324996,-0.24128371330519374,0.020590288709954264,0.7194427617595386,1.4610313156155663,1.174511656843983,2.205634482290089,1.9693437158190075,0.5562017830090447,0.8482367015892364,0.03504586686871434,1.486265860313997,1.7201905916904723,0.9420361172123785,0.9694853390258975,-0.23296367694301734,0.3760130283807446,1.4376786692741859,0.6765649503558856,-0.40907244187605396,1.2158314407910071,0.4050113990336078,-1.731562835269867,0.2294701533952605,0.29004638082054784,-0.23438974028169834,0.46607242194583803,-0.09039178900915555,0.5744990180343541,1.1595380523938694,3.048144653161798,2.107133935553205,-0.49321869093968396,-2.3178543770813755,0.9767701955399285,-0.7996961139341611,0.6284767328566663,-1.9795632577054387,-0.19061275630803431,-0.6330052738155139,0.23582130488129507,-0.8537306842625325,2.9204744732828543,-1.1074544965341506,-0.21472751090835526,-0.7921901104687615,1.5177122408217532,0.7540190046943751,-0.42571599307845714,-1.524059225300103,-1.0103880229102309,0.5182822993223302,-1.4159329825833593,0.5656397798651512,0.11485236849775267,-0.05333480177200512,0.5963166515668118,-0.9818984435566125,0.6020915664919989,1.3296895782330043,-0.47747526086876757,0.014557518302717433,1.6283842113746199,0.36196822592342887,0.2695131076132221,-0.4320285627975412,0.845110067868652,-1.4698177024861132,0.5288801689090991,1.0604828228686658,-1.554584913803886,0.5467243702519494,2.3089934677430644,-1.2476180635585548,-0.4148148399796922,0.8552681562614576,-1.3289926223458377,-1.130942260088122,0.46141171398973335,1.7812394801801588,-0.18952948020756705,0.03185271562158845,0.27898161678479766,0.10798924304001857,0.3016691888998788,-1.8419858870655184,-2.736036390567116,2.6836921399561486,-0.44446922017085577,-0.09350101497984398,-1.7671828615701324,1.9615208619825797,-1.5336678661120053,-2.187916002101048,-2.9049031559190097,-0.07591911842066688,0.8180054081663318,-1.5093550149825732,-0.829585169351825,0.40260153253259806,-0.08125608041028454,0.6431293944127022,0.8839291135451633,0.24264932024411603,2.7529666597052054,3.7497740658592793,-0.3903839721282752,0.13733413846091524,3.2758640035775817,3.8564523731822637,0.30900589133253575,-0.3156082757563613,-0.3392173617473066,0.29840939671408667,1.549565817838604,0.8938387930161338,-1.1903535211614522,-1.5546386167269344,-0.2725033121943753,-1.1244817121679664,-1.8271821187604724,-1.481876598337569,-1.0630489068032838,1.319814699730168,-0.5450227527338595,-0.7808814397069397,-1.2287519084993637,-1.3565863529373738,-1.19980300334542,-0.7211497918940704,0.5449890236433286,1.1921578216505382,1.7105693700189533,2.426669672693142,2.6244162102144433,3.2228660034846377,2.309255201674446,2.279087804990961,1.237188181232536,0.9338784993314873,2.6374083212878063,-2.22763579648292,-0.24754336911665753,-0.9147674437672286,1.6000170203192188,-1.035839499107457,0.5902098665930484,1.8939510808614557,2.3174910429077564,-3.142955308358943,-2.5101810289090474,0.32314229601494554,0.09487733913158125,-1.218004157160034,-0.5583379415476842,-0.16635563444646972,0.9763378946918726,0.4563483411988031,0.24990767860644403,2.2408468921719207,0.9379387189833417,-3.231119193829495,2.0777239074194345,1.4917577541665257,-1.614598990771341,2.59834591553749,1.5914324932176185,1.5029917618566702,3.2187575130590047,4.1934392658847255,1.4170019044619477,-0.5825556472465421,3.5756716166131612,0.09872780008606724,0.5512166923348104,-0.9294940199110014,-1.3232702621375652,-0.6153283643949983,-1.0998885794447137,-2.3750563541538297,-0.5368720372416359,-0.7429724318542228,-0.2273906102822626,-0.22647845733890165,1.5474104018581358,-0.6540608950047434,1.817797989993484,-0.43891873295495,-3.6392145880673072,-1.08301330782438,1.6864948603527563,2.2932388321921424,1.8733280323561174,1.339318978129786,1.3103972394974561,3.0570022786110616,-3.2723137945361223,0.7704311702852457,1.1494694438032016,1.0692588491283066,0.4061116227820424,-0.7836147967268655,-1.6052082257247808,-3.7577336665630443,-1.728389774804909,2.299516877118308,-0.45913748273423394,-0.662261316201635,-2.2699929731096478,0.7970926373192231,0.653898491172327,-0.5696545672253012,-0.8651309063985786,0.9594953993538771,0.6606156984191444,-1.6941844742908463,-1.5270876706528131,0.42180792661434985,1.1210059591226724,2.7438676635021126,-1.794620018359596,0.4522119087591139,-1.6720568224061458,-5.665071577436962,-6.3950324277124615,-6.2490032063491565,-4.527248307487897,-0.8331785021173598,1.0673167572582343,-1.5747260307577486,-0.3239219887434849,-0.9295994179070214,1.0019850039372062,-0.9869166286789213,-1.758642043933983,-1.4256800653746087,-0.3253130475633722,0.0820726307735808,0.919786646994619,-1.12820497126904,0.26576456531524345,-1.2837995372626638,1.9945616194679636,-0.4691681486609488,-0.7209275605403016,-3.4798078546654208,-2.0331230139662244,-4.851004313612948,-5.820239199866303,-9.290434544123238,-12.191095507467432,-12.077342759680501,-8.376447094386531,-4.319193483329579,-2.203405544594879,-1.3484259653861166,-0.3944090972289788,-2.2940363505630788,-0.6999962063827306,1.167750322078998,-1.1835394467605496,-2.756360256886517,-4.1907218050643325,-2.039512528646865,0.7395907438193229,0.10349533857298363,0.6235843989049511,1.0974487744977175,-1.4912545636805368,0.2762953156907229,-2.281070918845669,-2.295431613348033,-2.2022734266725226,-4.322473791728256,-9.598408471695457,-11.33243290715223,-15.126269649381413,-10.321331434809805,-8.711783280183422,-3.0729652327375665,0.30748933851409455,-2.583767006324595,-0.7818209603191588,2.022395009781108,-0.43015922794707157,0.08421249074415664,-2.8642172930702547,-1.2311080492641535,-3.4129802240448606,-2.3141505018275326,-1.47147993045611,0.43195723245658957,0.8256198795581992,1.7423596818762803,1.1392318931940941,0.2474366627563846,-1.147780326775895,-0.8678818233610891,-0.4444511798428428,-3.108668860605648,-6.890352352771154,-8.621326949255426,-9.996054645405934,-11.535550945748556,-8.863343258619551,-1.288377825438502,0.1487544648298966,2.3012027592813884,0.410487939224203,0.6735087651650814,-0.2811957101240575,-1.0448477937421166,0.4830040076151597,0.4984300380389365,-3.8491152304724996,-3.769226689001067,2.3412247204276553,-0.548656981383688,0.5400851867953673,-0.43099327571573137,0.5900724372455399,-0.9760490094207181,1.2465091273482645,1.753870896843792,-0.5526917789913087,0.1566812107526115,-0.6340988584957793,-0.6981376947070953,-4.572018950606408,-7.364345484024587,-5.90849729610436,-2.5171918621325733,4.607501911023532,4.776615435894284,1.4274278297955532,-0.2724218015142524,2.2367269168616732,0.9950636299810567,1.6624394860270262,0.3831968773990495,-2.0308012913272413,2.41476234681779,-2.5704766076866488,-0.6941267339127288,1.5993487411995282,-1.0921755750669682,0.42777604312250295,1.0544704253622508,1.0871275817706654,-1.0571451086845565,0.21283892218235065,-0.4904920580162452,0.0598463363914965,-0.1245921061749306,0.19419568567476686,-2.044491342348379,-2.499061383758756,-3.2228481073778514,-0.4717744057488933,2.742310571017736,3.80800373154481,2.913002670571846,1.2237669853139548,-1.2042592638602938,2.0310511708225616,-1.5578741784240997,1.0611448165148927,-1.19146982820098,-2.6726379055724725,2.4823195606495787,-0.12481816720167908,1.0516018183986746,3.6780515258854294,0.1867214556682655,0.9870749006855333,3.418473182356782,1.4315825473467787,0.5382026195499086,0.6649065015186777,0.23263924506091713,-0.8265738013170527,-1.626201062144054,0.9762896719759713,-1.5625635585366693,-1.3467431579161915,-1.244572119184116,1.0042186195845546,1.4223171858684895,0.39160089798993414,0.6722916189977299,-1.4998174752805202,-0.17291420774596522,0.2180555203162704,1.7539776293909288,0.06668813533218676,0.06672039953218654,1.8987250929131794,0.8287322689203837,1.5864004900237358,1.2718914193566202,1.5976924147555172,0.41864845805780365,-1.2819848394039337,2.8284209592981404,3.9432553680423483,0.4876501548176782,0.06847797625373656,0.6844442061257819,0.7325596570776728,-0.08478075093241629,-0.41254942948383594,-1.1884256148231769,0.21507570733525416,-0.4062909886960751,-1.290188137913604,-0.819015393206213,-1.6792417226335221,-2.457588818944968,-0.3851705199646614,0.7968267593576005,-1.1105034927194535,0.3878616611524316,-0.0029508248705479904,-1.103477228224799,0.3480085877951384,0.8692453198457997,0.8176238719465644,1.2587592236270517,-1.8262358228111049,-0.8792550808344847,-0.6678151595374389,0.7994772875204185,-0.408335577434749,1.027392268079604,-0.8727083217083174,0.13149960839808672,1.0673318549675521,-0.06827990171239878,0.7773239970923359,-0.2097141433401263,0.6536081107423973,-1.0325470737781537,-0.11771630430246183,-0.2044394402661425,-0.19134555453099247,-0.24893423347475993,-0.6008866692184174,2.0401732150901473,0.7106259910185074,1.8085342138550846,-0.36433659092723997,-1.1070616264592825,2.4440431304154697,-0.1196970693994014,0.6971474803216537,-2.92746486152423,-1.7999749374129466,-0.6578397270162478,1.1775737776401904,0.24764082280057373,-0.6836253312939712,0.7325390857294645,-0.3800832009078145,0.7113508152174011,-0.747469237293169,-0.4679143538764548,1.8162359096304115,0.19139499204241936,2.7918323580150304,0.3493820540014738,2.572501392667262,-2.2524776001573645,0.7198331675052526,-0.6020214212001692,-0.9013792023805377,-0.8652862822153087,-0.12192064243401937,0.8935328213363433,1.4371501203171773,0.10909005514648522,-0.9198255643066697,-1.9323282420970227,-1.6286834857772625,0.2013571382614653,0.25428644678748924,-1.3499771059987378,-0.6664113497695795,0.443785608538479,0.03625417936716946,-0.44346136600460395,1.07163965806194,1.6054018455730488,-1.3315615057802042,0.19540225448035972,1.1117116391723958,2.5026349458442048,1.2705677945066947,5.017308904680184,1.0308150063495323,0.26712198587494806,2.5434735311524164,-0.012655843098848724,1.4755980712612546,0.8740166839497667,0.8051457334757269,0.9326832050216796,0.714552376681866,0.1983207647570082,-0.2959477492403401,0.9903587546536958,-0.00718125996225839,3.695124286338528,0.15731825932246893,-1.3522726987839173,2.8484903356082283,0.5192535404520994,-0.3728148163708732,-0.7730983836421396,2.122377753308327,-0.7636932054843522,0.46717440251090697,-0.5832627307992172,2.9622349768253264,1.7520980835886957,2.549087037076726,-1.3366523529548395,1.6660592456729715,-1.2093531812584717,-1.8648847171260008,2.2437713314747403,-0.7111460636610271,2.3032040698149037,0.6470110338295639,-0.14203465180671745,1.7242054303997472,0.5708692445295559,-0.7175659421162504,-0.7903415732762081,2.8521916584215004,0.36757919825307644,-0.17218017093459478,-0.10924105475586574,0.05492212142212305,1.4663616014105123,0.28711342090508646,-1.6680329093397386,0.44786411166276036,-1.1337991574094073,-0.3171128753415936,-0.15210377591725882,-0.31498959511166014,2.0899842041177275,1.9080953321840488,-0.1371540463226421,1.6775417910044992,1.1495375427539032,1.693884835840163,2.4809087495130835,0.13293264668780902,-1.4724401471952313,-0.32128277090809176,0.37526953715155,1.6943181636834308,1.871223079776835,1.264164913423636,-0.3701182382605124,1.4396643409500547,1.5129175276977942,-0.7542352136202484,-0.9506607913428263,0.610442335785353,-2.4139363178980817,0.7034594759896234,0.16433522337059137,-0.3752493472831818,-1.4252352998297921,-0.1148761545014162,0.45726205495946026,1.6619597632583312,0.715056704704704,2.886358646341834,2.4492748517442253,3.7401945029556383,0.013724836607773667,1.2621168434673837,-1.869861557594208,0.44511596696767464,-0.6650728445428297,3.2504198310924117,0.025261009240747416,2.215759154479891,2.3520676008321053,-0.8245945293193426,-0.16628957399728603,1.797729698582229,-1.134456248086986,-0.8622132162450346,-0.7879776210115799,0.45709537350818374,0.28030677398083015,0.007954038478324394,0.04261171547223436,-0.45807955208815865,-0.7752817822889957,-0.8694520515676091,-0.5864928298721958,0.34267202836208244,2.4413885916722493,1.0631328419056607,2.947401949480526,1.8124924697584301,4.101526866419481,1.5654123590405402,0.7121521492237813,0.2121102563683031,-3.247552447456843,-0.36042911773648806,0.6860407347678776,-1.6080987579375792,-4.004886249381904,2.873027201943304,0.41174160088206563,-1.5536194796997924,-2.07580681590721,-1.398611046849535,0.5870528217057844,0.9666521320120818,-0.8822520201026496,0.6374065138571929,-0.9859651483917898,0.012310589009378153,-0.8659016551796704,1.7595024335571419,-0.0808863533172156,-0.24678356627581113,0.631707830856272,-0.31329216770974105,0.6276082172875653,2.4568666983676013,2.283165261164205,2.4323454578602717,4.606025006660002,3.0221634897498864,1.289815186367532,-0.4850173498810471,-1.2359886871736436,1.9286332770960917,0.32016514576177024,-2.3688887742894216,-1.9609370333151126,-2.1297710969796615,-0.7696359966623437,-1.527539799908164,-2.169920113043313,-0.9054451162443994,-0.5977567680762096,-0.19700909118701868,0.4248344496882176,-1.7141003973555549,-1.0615178892885804,0.7779568024611554,-1.3768121525360335,0.36660965737164125,-0.401324022357713,0.005021127559446817,0.4012904357082173,0.982434244387892,-0.9823240525725175,0.22649140538142834,0.8712785050172164,0.9435317847524067,-0.24435011828612846,0.26400201505338594,1.0575080852156364,-0.39618923250891414,0.11466622873944526,-0.8503722435073463,1.0758551459334547,0.6130017656527249,-0.1697701578641799,1.8302912952010642,-0.9115749242531547,1.2394991347488655,1.0488242591605257,1.0439397379762847,0.006973750264831352,-1.0314111088088274,0.39644314786813806,0.2187693295628219,0.4491381603322206,0.33302917704849366,0.6098431617945406,-0.9736409234765622,-0.33589652702386935,-0.3766591732678086,-0.18876712366187362,0.47043016348439953,0.038231100476510405,-1.1379150198591637,0.5290875800752424,-0.5852503557268087,-0.2257980833729281,0.9665006632872332,0.7686584179942669,1.2510595146810237,0.2674199564993619,1.4667870442186308,0.476744018040055,1.0643797954384846,-0.6594739539864392,0.6731375812802529,1.0370614447369593,0.36305585892634645,0.6665542826754657,0.20079949061649807,-0.02814357741037996,0.3677802993597178,-0.7159205928082415,-0.8149501991082123,0.6057604209928868,-0.15230867995362737,-0.07564993029800163,0.8324499783809253,-1.6868839814538266,0.5079711775345245,-1.5252507951858214,-1.252933507810469,0.7231621605867883,0.9752596887722037,2.6905901787957296,1.252735865130852,0.6126347303130816,-0.15665573612823488,0.3400607097253837,-0.04771715797939407,0.5556800477428601,-0.3579098911172058,0.9132439006844778,-1.1757999977384586,1.0669044741929408,0.3588623653022411,-1.0958440682379544,-0.7588357016529842,0.5265217440774721,-0.7840127238817256,0.570099122324234,-0.021823930907334387,-0.6386925434570471,0.33134510324068517,1.1887998700060325,-2.1084487720479204,-0.031391997562399784,-1.071437006758699,0.9775399971364165,0.6985003569978836,-0.9366620825210781,1.7746171785178695,-1.6015645903578744,-1.4697227023832367,0.9611170368469429,0.26581912338114005,0.3674380325272484,-1.1077274173024723,-1.6726105885629876,1.0769104400921856,0.7547294024848008,-0.8541837875339322,-0.3073998937088951,0.12876724194113423,2.4035374226509085,1.9879351412075,0.6261048522217814,0.4634568596496319,-0.27831486754685836,-0.2957771481915675,-2.3152949296903134,-1.0934959105538433,0.9519061584187689,-3.4514609719119664,0.16541717266853032,0.22806259336601006,-0.8865508418580246,-0.7885619732382765,-0.1968473943361787,-1.0063203899249198,-0.6716720110763381,0.0808056848096943,0.6191219875939611,0.3509310830433225,0.20117300767852828,-1.2893335754975934,0.2114957269175872,0.14355594710513053,-0.20362019095373812,-0.681559854518722,-0.3669120435064975,1.6638100947350813,-0.031049552035928556,-0.5790461701628338,-1.033889608003421,-0.6021717946433385,-1.5199827556437389,0.5327235240299355,1.050778283254613,-0.4230882248341778,0.06679164426401851,-0.9736476640550663,1.826901733598192,-0.22193812218683226,0.18260532173284258,1.8056949782681473,-0.7123378410949192,0.7404802831876213,0.4585867503831036,1.296661262792187,0.5303794931321345,-0.45713931682926984,0.09628729236870884,0.342040270998939,-1.2021149304547534,-1.8586402821959707,0.31301309140436573,-1.0331568213704294,-0.9326710428241691,0.5681841511249882,0.26363155174759517,-0.2113682271901648,0.6390594984284512,0.4117233758418444,1.4872365768716627,1.5696923853913958,-0.20681254177230504,1.5342175936210236,1.6561230114150969,-1.5219587739460394,2.393895859861134,0.166716375370398,0.7745543934417798,1.0477063557745898,1.7510208846928796,0.17928012953202174,1.4272307847476227,-0.725022866572231,0.37618118424581765,0.143204606692463,-1.2610381775044517,0.27777606604101274,-1.310498052217144,-1.1897058346939373,-0.017479198788030566,-0.11587092723348662,-0.3200612032736857,-1.6809537279703501,1.4254961023191735,1.1254742627503818,0.8398378769585627,0.942156138896791,1.1551226581300564,-0.23499229607407288,-0.030209236027708086,3.167960164906511,-0.24621095503504795,1.9019365342334018,1.1659946266287913,-0.646703091073801,1.1318371351283958,0.8272736560933835,-0.31459557814035893,0.8722615735669932,2.34526369467344,0.15488999594363265,-1.3547658572445342,0.4080466524485788,-2.0258167163322174,1.235474958006726,-0.2905089848618266,-1.272123846874303,-1.662957430034135,-2.5910445034717537,0.49612502847471557,-2.4136541745860494,-1.4549479646966497,1.3703927141090022,-1.2834656064796115,0.6276447114337086,-0.8918993529528142,-1.6457530347929872,0.9834114588707239,-1.5780735075482626,-1.2312095901346658,-0.6284596683647654,0.45512910126796585,-0.34325380256412075,0.18725910845238575,1.3395423967937459,0.40829417207051943,-3.92962733653362,-1.678580989182176,-0.0003053268204551627,0.6409781162390216,-1.5808974740551809,0.4399037089374728,-0.04681370610996526,0.3007315425983659,-0.06484529797586726,-1.036598853555806,-1.2070697940638533,-1.2179079664346335,-1.7062716458141896,-1.1434797371624372,-0.8742617013929757,-0.7326288673658898,0.7990072961149521,0.5744338539271032,0.7774726923492007,-0.5798851896660429,-0.22793253598236193,-2.4629293958072713,-2.9143662843191307,-3.681363800078942,-0.02645754426238621,-0.6439073045120131,-2.222010088764349,-2.558042103135242,-0.949469212207859,-2.1884696017867244,2.2446829156740353,-1.2815062665848216,-0.7801512352883765,-1.152950946503084,0.36737901941584034,-3.5002819505254044,-1.4722760973412534,1.6320861107775178,0.20974539122109329,-0.4036744690433185,-1.564462272886449,-0.5228099508229397,-1.3592111707794516,-1.9588409621821858,1.04263015037397,1.0498840467090533,-0.41991823101237546,-1.1369787116412984,1.0858413866544847,-2.8369433544482034,0.6083827123366012,-1.7300913289399624,-3.2142611096103995,1.9244795289794236,-1.5450736163015197,-0.6927833837297319,1.2443000575332923,-2.2752488220953713,-0.8756112129522146,-0.4937564998927536,0.7035425521859591,0.049972381308179534,-0.6464591171250027,-2.375159805291555,0.10311959941672548,1.1628230037529794,-0.20445779279829834,-2.6233935733263922,0.5084118844685327,-1.0755491353149567,1.5296131582379346,-1.07121429907762,0.30516626274118613,0.23950891858335027,1.29212971380796,-0.9072637264238171,0.3060007153329407,-0.6116371189894332,-1.0021806127479287,-2.5279903776498878,-1.617970713562805,-1.901409700487847,-1.4658617067316735,-1.661166471074793,-0.9085767850715478,-1.2554795071436051,-2.3063661807177107,-0.11813450388521458,1.956923082777996,4.893827758506439,3.3582160291732035,0.5721448208948808,0.692710432664,1.796031607396918,2.10323759432748,2.052439951887945,0.8060397636358118,0.13998054079853006,-0.28622819970226393,-0.13931836715657936,-0.2600843532106561,1.3663134796049838,-2.361504391950044,-1.1846801397765891,1.372340351680346,-0.0559725076160616,0.47084521261376605,-0.4588309952905827,-0.41596735883453795,1.1176394834957748,0.6238816677653665,-0.5444070577432853,1.91940079114787,2.038862499773729,1.373666276577025,0.11927699061998684,0.8871881755552389,3.395858248906894,2.998808477825127,1.4631277039386805,3.106251822223524,1.858495921999971,4.875175620915019,0.23982696654311703,0.14512451634041343,-0.45436053329102516,0.030026287002905872,0.047785920111100805,-1.3491983964910588,0.20149499621505773,0.1699393166138983,-0.6966533530569511,1.2930128175526885,0.11260043082935099,-1.2272362809264936,0.30196050338472635,2.4635430741960973,1.1251262096847725,1.5812827295283627,2.68430605389942,1.9736895080063073,3.6652325705912125,0.8939261446382212,-2.025980764101974,-3.0057060076551116,2.584848766337445,1.7064586319833173,-0.07528134568286822,1.8350308016490766,2.781991272422922,1.7192005600636637,2.4003769187070185,3.065410894959477,0.6328784132433419,-2.037503843320744,0.36627490822062614,1.8910621426932068,-1.7264598865617273,-2.4107934360441257,-3.058157973517457,0.5584870038122062,-0.007491539425724553,0.015282893948680735,1.3155550572580004,1.05910226027294,0.3329546766484058,-0.9375095322482454,2.1701976172340913,3.568152971229875,3.082535137850224,1.1790614122051863,-0.5752344198135572,0.3318423382135322,0.051406783350658736,-0.030698515594210947,-1.3327468293949314,0.588050954703719,-0.30060147635047796,0.2653106992152485,0.5310751649749098,0.3847871256529061,-2.6087617611519645,-0.13606829147681146,0.1805283782916038,0.8320900747421172,-0.18528618600259403,-2.0126707710981364,-1.8438686310738985,-2.354941746124233,0.4736353592349754,0.04153146250002328,3.8887552496193325,2.1755150203860567,-0.9609003822526978,0.7595000531723602,0.7731189046727842,1.7220332222741905,0.8250789023322344,1.6768865560978816,0.698527692972176,3.126249205719475,0.30490311534706577,0.10276074360792592,0.42710620542122063,-0.5169040120416454,-0.9268021413195763,1.1340645352384047,0.28543253143672653,-0.5925705923846575,-0.18141815212885082,-0.3490912402385966,-0.2010657528363146,-0.769906381049256,-0.8848601644339659,0.01634090402665729,-0.5283213171592475,0.28409443630607495,1.4839746042827908,1.6585217236069045,1.38201698204414,2.6530325869443763,-0.47920851131429937,1.6274500453232037,1.9406758688885595,-1.0497456399055693,0.7769757844679327,-1.6273898102836246,-0.47068630036913156,-0.40622742349480795,0.39774854435194595,1.492216872469447,-1.6644815533504196,-0.668659654908905,-0.8179626819932917,0.20462683473166438,-0.31039158940863537,-0.20525322083599165,-0.6960737942426501,0.20877073696045942,0.1404944247080268,-0.42877629102725223,0.16639418127332292,0.04365598587528927,0.9915861455688566,0.4983800887346917,-0.34638065432245824,2.3552535131891297,-0.2935098308905601,-2.888766472960853,-2.422263168287845,-0.5338294340495379,0.5546354436265964,2.1303541793577816,2.75680729318228,-1.7043863981030898,-2.1077799535134876,-0.3873274032228877,-0.43291389717074547,2.3930006325798896,0.11335355138014303,-2.080728467677277,0.09585006223613952,-1.7861469293614454,-0.14306790525357113,1.3182932811373198,0.07883566717538613,-1.7418176407606123,0.48357976201761466,1.045890471883358,-0.758873811764525,-0.05049434635035621,-0.0946117359829518,-0.28547036616894583,1.6266139080051907,0.25904296674642685,0.08142779420775365,-0.7241262930980945,-3.2766548714889807,-2.7129673075582215,-0.5126467250059809,1.130473395607745,1.8001841663437947,1.117257414256523,3.595741108225681,2.356548870116659,-1.0987314567190969,-0.44542671590964894,1.669818523814011,0.4390288514566259,-1.631539280364619,-0.7057299520348961,-1.8936198716274495,0.8591800945834909,0.07706752983790138,0.77456821256399,1.2396621556642304,0.7554868529296942,0.3588474152029702,-0.18076895615770058,0.6838649255294369,0.5631316935616906,3.250924413925184,1.779464083207771,5.1820355788494,3.5081438325521206,2.252917586005894,1.0402581185354562,-1.6919702039872848,1.9765394913822762,1.943429870639762,3.0676975248292777,3.793743935314699,-0.7065254896681259,-0.17739035997161262,-1.4565651948035152,1.0141037679528448,1.0004435290662703,-0.12823245511658238,-0.841149094668603,-0.26252522783802223,-0.274516018833276,-0.48679506858087934,1.1555623117623233,0.18259535677450386,-0.6158534086517532,-0.924154846221717,-1.0358739319786008,-1.0817927148066804,0.8819854755236207,5.039085668036299,5.630270270377837,7.143600176276163,5.8243027727954715,6.5321648496550075,5.305958168963091,5.794545843187885,6.433486541030615,3.555687539277312,0.3507427252046639,0.8862697601193815,1.1879326931174525,2.7872357222248785,0.026921526461642482,-1.221667359213114,-1.075384102572945,-1.2845382969234966,1.058996007384976,-0.5871598773217243,0.11262718116276778,-0.5176399289950764,0.43237412551847504,-0.6914690120578173,-0.24938046584350665,-2.690136203067076,-2.5387653551152205,0.38748613468596127,0.36046648641810297,4.235516656294324,3.6929222841611957,6.986775317695218,4.99433420856668,9.68645068075669,9.51429776416437,6.310020965780196,9.114291639798381,0.804577060052601,-0.6683920069982929,0.6883176958336212,-1.0051897466057251,-1.2605886215945032,-1.1883496675302618,0.6284709749188051,0.4668683996718674,0.40315672802676694,0.5373203594334099,-0.12489049988346385,1.5076831859913518,-0.7028941524773143,-0.34659446099986596,1.6464473969987554,-1.0284575866702423,0.9898602312369406,-0.08955304798202683,1.2016708096171156,0.9021479728155676,-1.9774599250068352,1.8373624218267213,2.273908513731329,-0.11002613975978848,3.266698572065609,4.882567604753386,7.562783679184179,3.68669660352782,-3.6045583422057486,-3.077077679623578,-0.42315768644054863,-1.0415581865402463,-2.8181160714385656,-0.6050184165332547,0.2176478407760362,0.692690194443332,0.6032999676330878,0.37825838099374753,0.367281311793503,-0.8284587980540126,0.385574612992422,0.14305509577268674,1.050161432437731,0.021235581003448568,0.7735782885979988,1.790514416712969,0.39816725248504997,0.793085926018144,0.8569164219759595,-1.5775400738256773,0.6759609522533954,1.5124179459208054,0.37783582849949493,1.2401596015497964,0.6682594397463423,-0.9754343112138065,-2.451666480991061,-2.1849678473070338,-4.28024441947529,1.5786924069473605,-2.552246853860747,-0.727596407408138,-0.8065122600687303,-0.18288803389788638,-1.1939134913476965,-1.0756497263008349,2.3680401309045704,0.4795133480882886,-0.9158040727322673,-0.8624775188361516,2.0759995243975915,-0.7990728409308414,-0.9486797159184721,0.10699546316645667,-1.0073919599649854,0.026318712520765897,1.9359846359108108,0.6999866697050642,-0.7599168924240516,1.069139053538397,-0.0063017746739625425,-2.433422867059446,-1.2362808516451653,-3.4438601781599134,-4.136529300056209,-2.755434912632017,-0.9468076087676458,0.11681677211263289,-0.7554999863921841,1.1527168397752157,0.6137234638717753,-0.08806065531946003,0.6821111175633718,-2.0147655128250617,-0.3757724351062366,1.1996522133474625,0.48619951582888593,0.5113733029892139,-1.1200842992576072,-0.209674116663292,-0.4160523424316723,0.2758040336119886,0.5400944656695846,0.7318161977135527,1.1263739672494957,-0.8546689438925557,0.33972714599797643,1.8142930414180338,-0.6792217458565969,-0.4241270603023387,-2.7987494043176597,-2.57308728982183,-0.7495113384603844,-0.9290029995091141,-0.39715226968612305,-1.0439254176777297,-0.9202562839099858,0.17208830564919445,0.1321488549713664,1.0980958038327935,0.025247143196325303,-0.537993384086894,-0.8860235830133226,1.0706420746494205,0.30764684663003505,0.7897452246838748,0.20849353028008685,-0.25934438557816036,1.0598221753275168,-1.1353529570429273,0.16010068235339653,0.5611368843838809,-1.5858877877211524,-0.3929370206305862,-1.8382906135333288,-1.441443305173595,-2.7871012875106858,-0.7515011107688179,-0.4140806396391596,-1.0662867232188977,-0.10086862862075952,0.12001738462439533,-0.5308999751548406,-0.10450612073487715,-1.2338252474830982,0.9849397154328663,0.1705458841659999,0.05546827590533543,-0.4032456156405249,-1.8665307764745636,-1.4167065845601559,0.3820284124400873,-0.4626300367829251,0.9886143084583163,-0.7074450162072026,1.3167779606366883,-1.7786205302064764,-0.6844951472820288,-0.1429239017432659,0.5977852532462163,-1.1989324373560781,-1.352816942405076,-1.9170666244502155,-1.9755339150122702,-0.3002859563764802,-0.14639582980849028,-0.2685128117462858,-0.22408778302452617,0.06546832357576922,-1.3980113908096288,-4.6900537345133015,-1.662088585263821,-1.1596091811100129,-1.2586295264350977,0.30973517273656354,-0.9468774049489499,0.17817846318086997,0.6478834647168802,0.010789009177984574,-1.6790103281006745,1.2730396973688831,0.6860935692169652,2.302953248460277,1.2700042038055863,1.9303811647476385,1.7374490080410259,-0.5276769115884189,1.4330109014293486,-0.1447749457164752,0.5282664990220965,1.6914012909796208,0.2310076053796995,1.2198632605985584,-1.280170575493164,0.5439067450480659,-0.5803529478261713,0.6026486820914093,-1.6913500916170183,0.3440859807573284,-1.138860289136132,-0.39694507600550943,-0.6187791577425216,-2.6676826306346744,-1.0053770607686594,-1.3640568386034004,-0.13309493366007263,1.8275507629485908,0.826606508060897,-1.5261525427169125,1.7717984228630599,2.227925187777145,1.511462550864073,-0.39632058725794,-1.0142473054912475,1.1281449849587388,0.21370569353080007,-0.2433265562471091,0.5669960898280517,-0.7165799160469283,0.5318355139163146,-1.8433807324580211,-1.211534800889003,1.4044671450623676,-0.9979765241788852,-1.2058551038805763,0.8583287193053654,0.44741404980830046,0.6950365199426037,-1.0931351582533044,-1.0888823778436627,-0.1269854549489143,0.7501402338661048,-0.16341840777628563,-0.28786755602299224,1.8221248733584299,-1.360756025663963,0.13508680285782484,2.413360552010818,0.06954865313882665,0.32297071101947394,-0.24256000378873765,-0.44224933294956437,-2.2214092417281783,0.9860028014838806,0.9252243825811846,1.3573497570600563,1.0306418727596989,-0.06779316869441246,-1.1044589868340513,0.7420187196724533,2.2583951131290565,-1.8232501841937423,-1.5337116104707142,0.8231411855875798,0.6467951046224892,1.9380342597511888,0.6584766203137641,-0.9761561893164891,0.6665274128942273,1.2898826261362226,-0.38141421264584435,-1.8249069183412727,0.6205872035926423,0.6899902534807053,2.0424390800413095,-0.20686321836368154,0.6472615135199227,0.7268437688877066,0.41417601175430846,0.04566153313461121,-0.29405268822044445,2.982838660119114,-0.5437707031784302,-1.1589096468302296,-1.084353698732566,-0.045005839807488734,1.7940321844019818,-0.40743890424228446,1.258731346532644,1.246826846535085,0.3660709360624393,0.8040178710925124,-1.924591361815085,0.8927785078220621,0.8659901279694678,0.24109714292210507,-1.2210922494366054,0.40896744884733843,0.18541337277658648,-0.9409593288782402,-0.5493492532666918,-0.18806610979014232,0.6034330689646707,-0.8640906041270805,0.9243241268841861,-0.10364660777884378,-0.12628360066409738,1.5512184792397932,0.3700424155435755,0.47045760088928706,-0.6162233897361519,1.3847895592021044,-1.2536570298846275,-0.6985453947372859,-0.5932181059075667,-0.006070819534306188,2.136001733766406,0.21884912229725528,-0.7843759429779611,-1.1132199520878079,-1.6287063618466895,0.44397434077500164,0.100119923313587,-0.5738473705530236,-0.38676478528490277,-0.01744193320151684,0.6751513104967569,0.2864359559829719,-2.1954010310517216,0.3138402701278318,-1.205597404754942,-0.7980734371345529,-0.7319591950678708,-0.005667650806112047,-1.5789665926202765,-0.5809137134927234,-1.2969218576301875,0.36359225817047375,-1.4229928305462192,1.968904943593647,2.385914596862342,-0.6469114935568884,-1.2762138962791798,-0.8610972868430689,0.10681268939622142,1.5307048116470519,-0.024932485935161095,-0.5004019135630775,-0.032030899326228185,-0.8959126200873543,-1.8560468635193634,0.2096879411763986,-0.05807112336197074,-0.8679804499810496,0.5389425416470962,0.15705486000300206,0.7519876387546749,-0.2930598756163272,-0.6589164848089997,-0.7379516378677031,0.24875239930555884,0.8757468373474422,-0.3091289416657682,1.8298367086463017,0.6333080997660132,0.2968479854561075,1.6560667230456416,1.1194174512194304,2.2589261456077314,0.7950343433102485,-1.1277550165908974,0.822820883264147,0.3880971877965102,-1.1058642845265665,-0.28071811173544675,-2.9103077475813053,-0.570093366196558,-2.451607949583176,0.32235113870546306,-0.2971071154411171,2.021021579670756,0.3758811302599683,-0.7183433083664693,0.6580885615162065,-1.6007867168039334,-2.4650144772879243,-0.5410805121161424,0.8292340377707839,-1.65565803537195,-1.5187820772900487,-1.0825304477568782,0.03728749484239585,-0.5917993724832978,2.305989892558236,2.101167835875629,1.8136243892956576,-0.17627993470260828,-1.8697047707724777,-2.0576617572742117,-2.382598105607105,-1.6626578155441638,-0.007003131606326754,1.3085603136658925,-1.0329055768261417,-0.08990715678966388,-2.9769792662601877,-2.31834660667876,-0.6400182759685175,-1.221120341165215,-1.4704916797575664,0.16263092839701657,0.7865357839880411,-1.2967492604663817,1.171193041111227,-0.6385736713155168,-1.6290119766010192,1.0584764290959887,-1.9759321927262152,0.32094315682682556,1.3469568482166143,-0.4221939655314285,2.593701030190077,1.8316909457625508,0.983144228557769,-1.7039913586732625,-0.053670217815719796,-2.1849037654402945,0.14270961325081377,0.03415746774793649,-2.0249220166109074,0.6232767516018914,-0.459575923585895,1.170165321391324,-1.105403158891576,0.8887778554304078,-1.2863299003047701,-0.3473882232473465,1.127458500030847,-0.11173163636279998,0.32201608551359695,-0.6297780296777695,0.07138202632376384,-0.3101824464220644,-0.1509047527337193,-0.4794540196576137,-0.3991132797424543,0.3339490656569261,-0.8592431734624918,2.6251817888570703,1.300970658479681,2.96911463516303,1.6729536893668637,2.329435701023844,0.6829153552505423,0.6716418723492048,-0.8956856604680506,-0.12665872009208987,-0.3839678926430277,0.4538360345674808,-0.7756667403331026,0.9451258021310478,-0.8806539240849158,1.6543278302830646,-0.286761068094241,-1.1950193576205672,0.7301921971126936,0.070869089919249,1.2326500257175173,-1.055476050824892,-1.4904530931701694,0.7880719316089082,1.060307648126396,1.2845981456509112,-0.7125865879457922,-0.7176696152881444,0.07099890245966073,2.3517839907155005,-1.0971718584427976,-1.3991888263139973,-1.0213864536868484,-0.9214835096670713,1.6187500453521593,1.0410303474453788,2.2222743019092293,-0.0910373752512937,-0.6807171489622154,-2.162724885834918,0.6284711317286523,-0.012945814705949089,0.38423084109333394,1.2093999049716235,-0.7544278341251763,-2.583589897109014,-0.42261342903543314,-0.6962800555930598,0.29512604938128223,2.0294823022363646,1.217365763903377,-0.0352820659658936,1.1493786471593392,-0.21828381701558092,0.024380385099403795,0.6687835870603077,-0.04594284162502613,0.6658367889993732,-1.3565001593879351,0.5077150364371645,-0.3773112828542585,-0.8033303399773273,0.23178704221153218,-0.6490754854099314,-1.5590287543888313,-0.627194866304528,-0.23834310841095796,1.24565020134155,0.5001620060278281,0.4548547661529395,0.34452955102913063,0.17107397736714755,0.9456400791284362,0.518298836431717,-1.6696812769843634,-0.21407074523184805,1.440867293793437,1.3343839186999622,-0.09532363501310885,0.6091723987627171,2.0912484341251236,0.14104459762582097,-0.7259530659715967,-0.17985076839617087,1.252081946531751,0.47805645895034204,-0.48669283567424254,0.28535905475996287,-1.8431577149371976,1.1525868360288958,0.042163514504562453,-0.3842326215158204,-2.2591367111694565,-1.4592916215454124,-0.37974911185940563,0.2764583725068472,-1.9559938894961717,-2.178206414470762,0.2335124948288882,-0.28198594386179926,-0.19489891799718212,-0.20079940135092977,-1.3567867922826493,-2.2289223867062873,0.9662600748014036,-0.590330431031602,0.9698902366431212,-0.9598559108890751,-0.4508768710506916,-0.5966305088182695,0.4269201001634223,-0.2376251679660015,1.2693186673249244,1.3351199769361264,-2.8544729278960776,-2.210531107819183,-2.225938599318855,-0.5892053124671232,-1.6924405669723814,-1.2327382080222888,-1.5934995827126026,-1.5795916746822674,-0.5127700278160777,-1.859187388600033,-3.0697151839065904,-2.600013406088737,-2.9524325741579474,-2.0850203016902777,-2.0157674583379452,-1.6954219975392089,-2.163720308384,-1.7336065527405489,-1.8975886546284553,-0.035261764242200865,0.9750318334468349,-0.7440713006943329,0.43596571761994335,1.9286316552160352,2.5919665455020358,0.4100728502498574,1.4436047756449406,-0.41165368536376423,0.10646141533158521,-1.0927331779147238,0.24738690885352146,-1.3934493419320533,-2.605339555465368,-1.0013323954763127,1.1869166455530575,-0.2861668317106693,-0.19459348909346874,1.9849769086603073,-0.6364076410104302,0.2383028718499819,-2.207890109751031,-1.2506983869046568,-2.4586668367334488,-1.9435726267847715,-3.947798970189987,-2.6886305856339647,-0.32653335976291264,0.18199380130509624,-1.2534199141315179,0.5845789897753665,-0.614407603383052,-1.58707753941864,-0.9748673384720266,-0.6433849263729131,0.011331786335513174,0.2090699232369833,-2.5143169789189512,-0.8132590203304615,-1.1916369528153519,-2.1338630684331417,-0.6073631148800511,0.37069739345088265,1.6161350220496162,1.350214679758306,1.018718390731854,-1.0151676115447514,-0.3868522018334533,2.3148229205473743,1.3271619305126454,1.6905826559042296,0.06326707468335589,-2.576767209739343,-1.9436236511103946,-1.244198710479711,-1.4568121097279354,-1.4110242423122554,-0.1879466131995866,-0.4058776598157769,-0.7957234415012839,-1.0243264190328638,-0.34093944869009024,1.238857739544998,0.25664457936554275,0.558665577312476,-3.3103257437362217,0.03486196219272995,-0.5156389382183724,-2.119719567248105,-1.081461490477449,0.7038028161326129,-1.5797957242283303,0.22545762073781983,0.41791873776181027,0.1359855650731787,0.9766432334374656,-0.35585130188699254,-0.27501689450065736,-1.7991908771358662,1.476206093051756,0.1133164018307831,-1.650282111411999,-2.0884698275997535,0.6169910385045924,-1.2002831241047398,-1.5130070433715292,-0.8569608889218836,0.8572712798196976,-0.58903271983714,